digraph Tree {
node [shape=box, style="filled, rounded", color="black", fontname="helvetica"] ;
edge [fontname="helvetica"] ;
0 [label=<PTT &le; -0.001<br/>gini = 0.5<br/>samples = 11840<br/>value = [5920, 5920]<br/>class = no_sepsis>, fillcolor="#ffffff"] ;
1 [label=<Hours &le; -0.738<br/>gini = 0.128<br/>samples = 3194<br/>value = [2974, 220]<br/>class = no_sepsis>, fillcolor="#e78a48"] ;
0 -> 1 [labeldistance=2.5, labelangle=45, headlabel="True"] ;
2 [label=<Hours &le; -0.86<br/>gini = 0.437<br/>samples = 152<br/>value = [49, 103]<br/>class = sepsis>, fillcolor="#97ccf1"] ;
1 -> 2 ;
3 [label=<ICULOS &le; -0.878<br/>gini = 0.295<br/>samples = 89<br/>value = [16, 73]<br/>class = sepsis>, fillcolor="#64b2eb"] ;
2 -> 3 ;
4 [label=<Phosphate &le; 1.266<br/>gini = 0.408<br/>samples = 7<br/>value = [5, 2]<br/>class = no_sepsis>, fillcolor="#efb388"] ;
3 -> 4 ;
5 [label=<gini = 0.0<br/>samples = 2<br/>value = [0, 2]<br/>class = sepsis>, fillcolor="#399de5"] ;
4 -> 5 ;
6 [label=<gini = 0.0<br/>samples = 5<br/>value = [5, 0]<br/>class = no_sepsis>, fillcolor="#e58139"] ;
4 -> 6 ;
7 [label=<Temp &le; -3.197<br/>gini = 0.232<br/>samples = 82<br/>value = [11, 71]<br/>class = sepsis>, fillcolor="#58ace9"] ;
3 -> 7 ;
8 [label=<Hgb &le; -1.116<br/>gini = 0.375<br/>samples = 4<br/>value = [3, 1]<br/>class = no_sepsis>, fillcolor="#eeab7b"] ;
7 -> 8 ;
9 [label=<gini = 0.0<br/>samples = 1<br/>value = [0, 1]<br/>class = sepsis>, fillcolor="#399de5"] ;
8 -> 9 ;
10 [label=<gini = 0.0<br/>samples = 3<br/>value = [3, 0]<br/>class = no_sepsis>, fillcolor="#e58139"] ;
8 -> 10 ;
11 [label=<Alkalinephos &le; 8.978<br/>gini = 0.184<br/>samples = 78<br/>value = [8, 70]<br/>class = sepsis>, fillcolor="#50a8e8"] ;
7 -> 11 ;
12 [label=<Phosphate &le; 8.302<br/>gini = 0.126<br/>samples = 74<br/>value = [5, 69]<br/>class = sepsis>, fillcolor="#47a4e7"] ;
11 -> 12 ;
13 [label=<O2Sat &le; -1.776<br/>gini = 0.056<br/>samples = 70<br/>value = [2, 68]<br/>class = sepsis>, fillcolor="#3fa0e6"] ;
12 -> 13 ;
14 [label=<gini = 0.0<br/>samples = 1<br/>value = [1, 0]<br/>class = no_sepsis>, fillcolor="#e58139"] ;
13 -> 14 ;
15 [label=<Creatinine &le; 9.639<br/>gini = 0.029<br/>samples = 69<br/>value = [1, 68]<br/>class = sepsis>, fillcolor="#3c9ee5"] ;
13 -> 15 ;
16 [label=<gini = 0.0<br/>samples = 67<br/>value = [0, 67]<br/>class = sepsis>, fillcolor="#399de5"] ;
15 -> 16 ;
17 [label=<Hct &le; 1.918<br/>gini = 0.5<br/>samples = 2<br/>value = [1, 1]<br/>class = no_sepsis>, fillcolor="#ffffff"] ;
15 -> 17 ;
18 [label=<gini = 0.0<br/>samples = 1<br/>value = [0, 1]<br/>class = sepsis>, fillcolor="#399de5"] ;
17 -> 18 ;
19 [label=<gini = 0.0<br/>samples = 1<br/>value = [1, 0]<br/>class = no_sepsis>, fillcolor="#e58139"] ;
17 -> 19 ;
20 [label=<ICULOS &le; -0.691<br/>gini = 0.375<br/>samples = 4<br/>value = [3, 1]<br/>class = no_sepsis>, fillcolor="#eeab7b"] ;
12 -> 20 ;
21 [label=<gini = 0.0<br/>samples = 3<br/>value = [3, 0]<br/>class = no_sepsis>, fillcolor="#e58139"] ;
20 -> 21 ;
22 [label=<gini = 0.0<br/>samples = 1<br/>value = [0, 1]<br/>class = sepsis>, fillcolor="#399de5"] ;
20 -> 22 ;
23 [label=<AST &le; -1.029<br/>gini = 0.375<br/>samples = 4<br/>value = [3, 1]<br/>class = no_sepsis>, fillcolor="#eeab7b"] ;
11 -> 23 ;
24 [label=<gini = 0.0<br/>samples = 1<br/>value = [0, 1]<br/>class = sepsis>, fillcolor="#399de5"] ;
23 -> 24 ;
25 [label=<gini = 0.0<br/>samples = 3<br/>value = [3, 0]<br/>class = no_sepsis>, fillcolor="#e58139"] ;
23 -> 25 ;
26 [label=<ICULOS &le; -0.585<br/>gini = 0.499<br/>samples = 63<br/>value = [33, 30]<br/>class = no_sepsis>, fillcolor="#fdf4ed"] ;
2 -> 26 ;
27 [label=<WBC &le; -4.194<br/>gini = 0.077<br/>samples = 25<br/>value = [24, 1]<br/>class = no_sepsis>, fillcolor="#e68641"] ;
26 -> 27 ;
28 [label=<gini = 0.0<br/>samples = 1<br/>value = [0, 1]<br/>class = sepsis>, fillcolor="#399de5"] ;
27 -> 28 ;
29 [label=<gini = 0.0<br/>samples = 24<br/>value = [24, 0]<br/>class = no_sepsis>, fillcolor="#e58139"] ;
27 -> 29 ;
30 [label=<Potassium &le; 2.785<br/>gini = 0.361<br/>samples = 38<br/>value = [9, 29]<br/>class = sepsis>, fillcolor="#76bbed"] ;
26 -> 30 ;
31 [label=<WBC &le; 8.167<br/>gini = 0.18<br/>samples = 30<br/>value = [3, 27]<br/>class = sepsis>, fillcolor="#4fa8e8"] ;
30 -> 31 ;
32 [label=<Hct &le; 3.94<br/>gini = 0.069<br/>samples = 28<br/>value = [1, 27]<br/>class = sepsis>, fillcolor="#40a1e6"] ;
31 -> 32 ;
33 [label=<gini = 0.0<br/>samples = 27<br/>value = [0, 27]<br/>class = sepsis>, fillcolor="#399de5"] ;
32 -> 33 ;
34 [label=<gini = 0.0<br/>samples = 1<br/>value = [1, 0]<br/>class = no_sepsis>, fillcolor="#e58139"] ;
32 -> 34 ;
35 [label=<gini = 0.0<br/>samples = 2<br/>value = [2, 0]<br/>class = no_sepsis>, fillcolor="#e58139"] ;
31 -> 35 ;
36 [label=<Phosphate &le; 8.926<br/>gini = 0.375<br/>samples = 8<br/>value = [6, 2]<br/>class = no_sepsis>, fillcolor="#eeab7b"] ;
30 -> 36 ;
37 [label=<HospAdmTime &le; 0.333<br/>gini = 0.444<br/>samples = 3<br/>value = [1, 2]<br/>class = sepsis>, fillcolor="#9ccef2"] ;
36 -> 37 ;
38 [label=<gini = 0.0<br/>samples = 2<br/>value = [0, 2]<br/>class = sepsis>, fillcolor="#399de5"] ;
37 -> 38 ;
39 [label=<gini = 0.0<br/>samples = 1<br/>value = [1, 0]<br/>class = no_sepsis>, fillcolor="#e58139"] ;
37 -> 39 ;
40 [label=<gini = 0.0<br/>samples = 5<br/>value = [5, 0]<br/>class = no_sepsis>, fillcolor="#e58139"] ;
36 -> 40 ;
41 [label=<ICULOS &le; 1.055<br/>gini = 0.074<br/>samples = 3042<br/>value = [2925, 117]<br/>class = no_sepsis>, fillcolor="#e68641"] ;
1 -> 41 ;
42 [label=<Hours &le; -0.601<br/>gini = 0.031<br/>samples = 2818<br/>value = [2773, 45]<br/>class = no_sepsis>, fillcolor="#e5833c"] ;
41 -> 42 ;
43 [label=<ICULOS &le; -0.38<br/>gini = 0.368<br/>samples = 70<br/>value = [53, 17]<br/>class = no_sepsis>, fillcolor="#eda979"] ;
42 -> 43 ;
44 [label=<ICULOS &le; -0.487<br/>gini = 0.142<br/>samples = 52<br/>value = [48, 4]<br/>class = no_sepsis>, fillcolor="#e78c49"] ;
43 -> 44 ;
45 [label=<gini = 0.0<br/>samples = 39<br/>value = [39, 0]<br/>class = no_sepsis>, fillcolor="#e58139"] ;
44 -> 45 ;
46 [label=<BUN &le; 1.282<br/>gini = 0.426<br/>samples = 13<br/>value = [9, 4]<br/>class = no_sepsis>, fillcolor="#f1b991"] ;
44 -> 46 ;
47 [label=<Phosphate &le; -1.151<br/>gini = 0.32<br/>samples = 5<br/>value = [1, 4]<br/>class = sepsis>, fillcolor="#6ab6ec"] ;
46 -> 47 ;
48 [label=<gini = 0.0<br/>samples = 1<br/>value = [1, 0]<br/>class = no_sepsis>, fillcolor="#e58139"] ;
47 -> 48 ;
49 [label=<gini = 0.0<br/>samples = 4<br/>value = [0, 4]<br/>class = sepsis>, fillcolor="#399de5"] ;
47 -> 49 ;
50 [label=<gini = 0.0<br/>samples = 8<br/>value = [8, 0]<br/>class = no_sepsis>, fillcolor="#e58139"] ;
46 -> 50 ;
51 [label=<Hours &le; -0.714<br/>gini = 0.401<br/>samples = 18<br/>value = [5, 13]<br/>class = sepsis>, fillcolor="#85c3ef"] ;
43 -> 51 ;
52 [label=<gini = 0.0<br/>samples = 4<br/>value = [4, 0]<br/>class = no_sepsis>, fillcolor="#e58139"] ;
51 -> 52 ;
53 [label=<Temp &le; -2.512<br/>gini = 0.133<br/>samples = 14<br/>value = [1, 13]<br/>class = sepsis>, fillcolor="#48a5e7"] ;
51 -> 53 ;
54 [label=<gini = 0.0<br/>samples = 1<br/>value = [1, 0]<br/>class = no_sepsis>, fillcolor="#e58139"] ;
53 -> 54 ;
55 [label=<gini = 0.0<br/>samples = 13<br/>value = [0, 13]<br/>class = sepsis>, fillcolor="#399de5"] ;
53 -> 55 ;
56 [label=<ICULOS &le; 0.062<br/>gini = 0.02<br/>samples = 2748<br/>value = [2720, 28]<br/>class = no_sepsis>, fillcolor="#e5823b"] ;
42 -> 56 ;
57 [label=<Age &le; 1.5<br/>gini = 0.003<br/>samples = 2247<br/>value = [2244, 3]<br/>class = no_sepsis>, fillcolor="#e58139"] ;
56 -> 57 ;
58 [label=<WBC &le; -4.289<br/>gini = 0.002<br/>samples = 2242<br/>value = [2240, 2]<br/>class = no_sepsis>, fillcolor="#e58139"] ;
57 -> 58 ;
59 [label=<PaCO2 &le; -2.843<br/>gini = 0.105<br/>samples = 18<br/>value = [17, 1]<br/>class = no_sepsis>, fillcolor="#e78845"] ;
58 -> 59 ;
60 [label=<gini = 0.0<br/>samples = 1<br/>value = [0, 1]<br/>class = sepsis>, fillcolor="#399de5"] ;
59 -> 60 ;
61 [label=<gini = 0.0<br/>samples = 17<br/>value = [17, 0]<br/>class = no_sepsis>, fillcolor="#e58139"] ;
59 -> 61 ;
62 [label=<HospAdmTime &le; 0.338<br/>gini = 0.001<br/>samples = 2224<br/>value = [2223, 1]<br/>class = no_sepsis>, fillcolor="#e58139"] ;
58 -> 62 ;
63 [label=<gini = 0.0<br/>samples = 2191<br/>value = [2191, 0]<br/>class = no_sepsis>, fillcolor="#e58139"] ;
62 -> 63 ;
64 [label=<Unit1 &le; -0.801<br/>gini = 0.059<br/>samples = 33<br/>value = [32, 1]<br/>class = no_sepsis>, fillcolor="#e6853f"] ;
62 -> 64 ;
65 [label=<HCO3 &le; -3.676<br/>gini = 0.5<br/>samples = 2<br/>value = [1, 1]<br/>class = no_sepsis>, fillcolor="#ffffff"] ;
64 -> 65 ;
66 [label=<gini = 0.0<br/>samples = 1<br/>value = [1, 0]<br/>class = no_sepsis>, fillcolor="#e58139"] ;
65 -> 66 ;
67 [label=<gini = 0.0<br/>samples = 1<br/>value = [0, 1]<br/>class = sepsis>, fillcolor="#399de5"] ;
65 -> 67 ;
68 [label=<gini = 0.0<br/>samples = 31<br/>value = [31, 0]<br/>class = no_sepsis>, fillcolor="#e58139"] ;
64 -> 68 ;
69 [label=<FiO2 &le; -0.55<br/>gini = 0.32<br/>samples = 5<br/>value = [4, 1]<br/>class = no_sepsis>, fillcolor="#eca06a"] ;
57 -> 69 ;
70 [label=<gini = 0.0<br/>samples = 1<br/>value = [0, 1]<br/>class = sepsis>, fillcolor="#399de5"] ;
69 -> 70 ;
71 [label=<gini = 0.0<br/>samples = 4<br/>value = [4, 0]<br/>class = no_sepsis>, fillcolor="#e58139"] ;
69 -> 71 ;
72 [label=<Hours &le; -0.422<br/>gini = 0.095<br/>samples = 501<br/>value = [476, 25]<br/>class = no_sepsis>, fillcolor="#e68843"] ;
56 -> 72 ;
73 [label=<WBC &le; 3.323<br/>gini = 0.32<br/>samples = 10<br/>value = [2, 8]<br/>class = sepsis>, fillcolor="#6ab6ec"] ;
72 -> 73 ;
74 [label=<gini = 0.0<br/>samples = 8<br/>value = [0, 8]<br/>class = sepsis>, fillcolor="#399de5"] ;
73 -> 74 ;
75 [label=<gini = 0.0<br/>samples = 2<br/>value = [2, 0]<br/>class = no_sepsis>, fillcolor="#e58139"] ;
73 -> 75 ;
76 [label=<Hours &le; -0.255<br/>gini = 0.067<br/>samples = 491<br/>value = [474, 17]<br/>class = no_sepsis>, fillcolor="#e68640"] ;
72 -> 76 ;
77 [label=<Creatinine &le; -1.309<br/>gini = 0.363<br/>samples = 42<br/>value = [32, 10]<br/>class = no_sepsis>, fillcolor="#eda877"] ;
76 -> 77 ;
78 [label=<Glucose &le; 1.136<br/>gini = 0.498<br/>samples = 17<br/>value = [8, 9]<br/>class = sepsis>, fillcolor="#e9f4fc"] ;
77 -> 78 ;
79 [label=<BaseExcess &le; -0.005<br/>gini = 0.426<br/>samples = 13<br/>value = [4, 9]<br/>class = sepsis>, fillcolor="#91c9f1"] ;
78 -> 79 ;
80 [label=<gini = 0.0<br/>samples = 2<br/>value = [2, 0]<br/>class = no_sepsis>, fillcolor="#e58139"] ;
79 -> 80 ;
81 [label=<MAP &le; -1.312<br/>gini = 0.298<br/>samples = 11<br/>value = [2, 9]<br/>class = sepsis>, fillcolor="#65b3eb"] ;
79 -> 81 ;
82 [label=<gini = 0.0<br/>samples = 1<br/>value = [1, 0]<br/>class = no_sepsis>, fillcolor="#e58139"] ;
81 -> 82 ;
83 [label=<MAP &le; 2.035<br/>gini = 0.18<br/>samples = 10<br/>value = [1, 9]<br/>class = sepsis>, fillcolor="#4fa8e8"] ;
81 -> 83 ;
84 [label=<gini = 0.0<br/>samples = 9<br/>value = [0, 9]<br/>class = sepsis>, fillcolor="#399de5"] ;
83 -> 84 ;
85 [label=<gini = 0.0<br/>samples = 1<br/>value = [1, 0]<br/>class = no_sepsis>, fillcolor="#e58139"] ;
83 -> 85 ;
86 [label=<gini = 0.0<br/>samples = 4<br/>value = [4, 0]<br/>class = no_sepsis>, fillcolor="#e58139"] ;
78 -> 86 ;
87 [label=<BaseExcess &le; -2.505<br/>gini = 0.077<br/>samples = 25<br/>value = [24, 1]<br/>class = no_sepsis>, fillcolor="#e68641"] ;
77 -> 87 ;
88 [label=<Potassium &le; 5.625<br/>gini = 0.5<br/>samples = 2<br/>value = [1, 1]<br/>class = no_sepsis>, fillcolor="#ffffff"] ;
87 -> 88 ;
89 [label=<gini = 0.0<br/>samples = 1<br/>value = [0, 1]<br/>class = sepsis>, fillcolor="#399de5"] ;
88 -> 89 ;
90 [label=<gini = 0.0<br/>samples = 1<br/>value = [1, 0]<br/>class = no_sepsis>, fillcolor="#e58139"] ;
88 -> 90 ;
91 [label=<gini = 0.0<br/>samples = 23<br/>value = [23, 0]<br/>class = no_sepsis>, fillcolor="#e58139"] ;
87 -> 91 ;
92 [label=<pH &le; 4.451<br/>gini = 0.031<br/>samples = 449<br/>value = [442, 7]<br/>class = no_sepsis>, fillcolor="#e5833c"] ;
76 -> 92 ;
93 [label=<SaO2 &le; -11.566<br/>gini = 0.018<br/>samples = 441<br/>value = [437, 4]<br/>class = no_sepsis>, fillcolor="#e5823b"] ;
92 -> 93 ;
94 [label=<ICULOS &le; 0.679<br/>gini = 0.5<br/>samples = 2<br/>value = [1, 1]<br/>class = no_sepsis>, fillcolor="#ffffff"] ;
93 -> 94 ;
95 [label=<gini = 0.0<br/>samples = 1<br/>value = [1, 0]<br/>class = no_sepsis>, fillcolor="#e58139"] ;
94 -> 95 ;
96 [label=<gini = 0.0<br/>samples = 1<br/>value = [0, 1]<br/>class = sepsis>, fillcolor="#399de5"] ;
94 -> 96 ;
97 [label=<Age &le; -2.62<br/>gini = 0.014<br/>samples = 439<br/>value = [436, 3]<br/>class = no_sepsis>, fillcolor="#e5823a"] ;
93 -> 97 ;
98 [label=<Hgb &le; -3.335<br/>gini = 0.5<br/>samples = 2<br/>value = [1, 1]<br/>class = no_sepsis>, fillcolor="#ffffff"] ;
97 -> 98 ;
99 [label=<gini = 0.0<br/>samples = 1<br/>value = [1, 0]<br/>class = no_sepsis>, fillcolor="#e58139"] ;
98 -> 99 ;
100 [label=<gini = 0.0<br/>samples = 1<br/>value = [0, 1]<br/>class = sepsis>, fillcolor="#399de5"] ;
98 -> 100 ;
101 [label=<ICULOS &le; 0.762<br/>gini = 0.009<br/>samples = 437<br/>value = [435, 2]<br/>class = no_sepsis>, fillcolor="#e5823a"] ;
97 -> 101 ;
102 [label=<gini = 0.0<br/>samples = 402<br/>value = [402, 0]<br/>class = no_sepsis>, fillcolor="#e58139"] ;
101 -> 102 ;
103 [label=<Hours &le; -0.016<br/>gini = 0.108<br/>samples = 35<br/>value = [33, 2]<br/>class = no_sepsis>, fillcolor="#e78945"] ;
101 -> 103 ;
104 [label=<gini = 0.0<br/>samples = 1<br/>value = [0, 1]<br/>class = sepsis>, fillcolor="#399de5"] ;
103 -> 104 ;
105 [label=<Unit1 &le; -1.492<br/>gini = 0.057<br/>samples = 34<br/>value = [33, 1]<br/>class = no_sepsis>, fillcolor="#e6853f"] ;
103 -> 105 ;
106 [label=<Phosphate &le; 0.33<br/>gini = 0.444<br/>samples = 3<br/>value = [2, 1]<br/>class = no_sepsis>, fillcolor="#f2c09c"] ;
105 -> 106 ;
107 [label=<gini = 0.0<br/>samples = 1<br/>value = [0, 1]<br/>class = sepsis>, fillcolor="#399de5"] ;
106 -> 107 ;
108 [label=<gini = 0.0<br/>samples = 2<br/>value = [2, 0]<br/>class = no_sepsis>, fillcolor="#e58139"] ;
106 -> 108 ;
109 [label=<gini = 0.0<br/>samples = 31<br/>value = [31, 0]<br/>class = no_sepsis>, fillcolor="#e58139"] ;
105 -> 109 ;
110 [label=<WBC &le; -0.621<br/>gini = 0.469<br/>samples = 8<br/>value = [5, 3]<br/>class = no_sepsis>, fillcolor="#f5cdb0"] ;
92 -> 110 ;
111 [label=<Hgb &le; 0.032<br/>gini = 0.375<br/>samples = 4<br/>value = [1, 3]<br/>class = sepsis>, fillcolor="#7bbeee"] ;
110 -> 111 ;
112 [label=<gini = 0.0<br/>samples = 3<br/>value = [0, 3]<br/>class = sepsis>, fillcolor="#399de5"] ;
111 -> 112 ;
113 [label=<gini = 0.0<br/>samples = 1<br/>value = [1, 0]<br/>class = no_sepsis>, fillcolor="#e58139"] ;
111 -> 113 ;
114 [label=<gini = 0.0<br/>samples = 4<br/>value = [4, 0]<br/>class = no_sepsis>, fillcolor="#e58139"] ;
110 -> 114 ;
115 [label=<Hours &le; 1.762<br/>gini = 0.436<br/>samples = 224<br/>value = [152, 72]<br/>class = no_sepsis>, fillcolor="#f1bd97"] ;
41 -> 115 ;
116 [label=<BUN &le; 6.195<br/>gini = 0.42<br/>samples = 80<br/>value = [24, 56]<br/>class = sepsis>, fillcolor="#8ec7f0"] ;
115 -> 116 ;
117 [label=<pH &le; 0.808<br/>gini = 0.331<br/>samples = 67<br/>value = [14, 53]<br/>class = sepsis>, fillcolor="#6db7ec"] ;
116 -> 117 ;
118 [label=<BaseExcess &le; -0.002<br/>gini = 0.201<br/>samples = 53<br/>value = [6, 47]<br/>class = sepsis>, fillcolor="#52aae8"] ;
117 -> 118 ;
119 [label=<Hgb &le; 1.068<br/>gini = 0.49<br/>samples = 7<br/>value = [4, 3]<br/>class = no_sepsis>, fillcolor="#f8e0ce"] ;
118 -> 119 ;
120 [label=<gini = 0.0<br/>samples = 4<br/>value = [4, 0]<br/>class = no_sepsis>, fillcolor="#e58139"] ;
119 -> 120 ;
121 [label=<gini = 0.0<br/>samples = 3<br/>value = [0, 3]<br/>class = sepsis>, fillcolor="#399de5"] ;
119 -> 121 ;
122 [label=<ICULOS &le; 6.497<br/>gini = 0.083<br/>samples = 46<br/>value = [2, 44]<br/>class = sepsis>, fillcolor="#42a1e6"] ;
118 -> 122 ;
123 [label=<Age &le; 1.356<br/>gini = 0.043<br/>samples = 45<br/>value = [1, 44]<br/>class = sepsis>, fillcolor="#3d9fe6"] ;
122 -> 123 ;
124 [label=<gini = 0.0<br/>samples = 43<br/>value = [0, 43]<br/>class = sepsis>, fillcolor="#399de5"] ;
123 -> 124 ;
125 [label=<HR &le; 1.538<br/>gini = 0.5<br/>samples = 2<br/>value = [1, 1]<br/>class = no_sepsis>, fillcolor="#ffffff"] ;
123 -> 125 ;
126 [label=<gini = 0.0<br/>samples = 1<br/>value = [1, 0]<br/>class = no_sepsis>, fillcolor="#e58139"] ;
125 -> 126 ;
127 [label=<gini = 0.0<br/>samples = 1<br/>value = [0, 1]<br/>class = sepsis>, fillcolor="#399de5"] ;
125 -> 127 ;
128 [label=<gini = 0.0<br/>samples = 1<br/>value = [1, 0]<br/>class = no_sepsis>, fillcolor="#e58139"] ;
122 -> 128 ;
129 [label=<FiO2 &le; 6.658<br/>gini = 0.49<br/>samples = 14<br/>value = [8, 6]<br/>class = no_sepsis>, fillcolor="#f8e0ce"] ;
117 -> 129 ;
130 [label=<Chloride &le; -0.156<br/>gini = 0.32<br/>samples = 10<br/>value = [8, 2]<br/>class = no_sepsis>, fillcolor="#eca06a"] ;
129 -> 130 ;
131 [label=<gini = 0.0<br/>samples = 7<br/>value = [7, 0]<br/>class = no_sepsis>, fillcolor="#e58139"] ;
130 -> 131 ;
132 [label=<Potassium &le; -2.499<br/>gini = 0.444<br/>samples = 3<br/>value = [1, 2]<br/>class = sepsis>, fillcolor="#9ccef2"] ;
130 -> 132 ;
133 [label=<gini = 0.0<br/>samples = 1<br/>value = [1, 0]<br/>class = no_sepsis>, fillcolor="#e58139"] ;
132 -> 133 ;
134 [label=<gini = 0.0<br/>samples = 2<br/>value = [0, 2]<br/>class = sepsis>, fillcolor="#399de5"] ;
132 -> 134 ;
135 [label=<gini = 0.0<br/>samples = 4<br/>value = [0, 4]<br/>class = sepsis>, fillcolor="#399de5"] ;
129 -> 135 ;
136 [label=<Phosphate &le; 7.99<br/>gini = 0.355<br/>samples = 13<br/>value = [10, 3]<br/>class = no_sepsis>, fillcolor="#eda774"] ;
116 -> 136 ;
137 [label=<gini = 0.0<br/>samples = 9<br/>value = [9, 0]<br/>class = no_sepsis>, fillcolor="#e58139"] ;
136 -> 137 ;
138 [label=<Alkalinephos &le; 6.295<br/>gini = 0.375<br/>samples = 4<br/>value = [1, 3]<br/>class = sepsis>, fillcolor="#7bbeee"] ;
136 -> 138 ;
139 [label=<gini = 0.0<br/>samples = 3<br/>value = [0, 3]<br/>class = sepsis>, fillcolor="#399de5"] ;
138 -> 139 ;
140 [label=<gini = 0.0<br/>samples = 1<br/>value = [1, 0]<br/>class = no_sepsis>, fillcolor="#e58139"] ;
138 -> 140 ;
141 [label=<O2Sat &le; -1.747<br/>gini = 0.198<br/>samples = 144<br/>value = [128, 16]<br/>class = no_sepsis>, fillcolor="#e89152"] ;
115 -> 141 ;
142 [label=<HospAdmTime &le; -1.095<br/>gini = 0.32<br/>samples = 5<br/>value = [1, 4]<br/>class = sepsis>, fillcolor="#6ab6ec"] ;
141 -> 142 ;
143 [label=<gini = 0.0<br/>samples = 1<br/>value = [1, 0]<br/>class = no_sepsis>, fillcolor="#e58139"] ;
142 -> 143 ;
144 [label=<gini = 0.0<br/>samples = 4<br/>value = [0, 4]<br/>class = sepsis>, fillcolor="#399de5"] ;
142 -> 144 ;
145 [label=<PTT &le; -3.298<br/>gini = 0.158<br/>samples = 139<br/>value = [127, 12]<br/>class = no_sepsis>, fillcolor="#e78d4c"] ;
141 -> 145 ;
146 [label=<Hours &le; 5.439<br/>gini = 0.375<br/>samples = 4<br/>value = [1, 3]<br/>class = sepsis>, fillcolor="#7bbeee"] ;
145 -> 146 ;
147 [label=<gini = 0.0<br/>samples = 3<br/>value = [0, 3]<br/>class = sepsis>, fillcolor="#399de5"] ;
146 -> 147 ;
148 [label=<gini = 0.0<br/>samples = 1<br/>value = [1, 0]<br/>class = no_sepsis>, fillcolor="#e58139"] ;
146 -> 148 ;
149 [label=<AST &le; -2.696<br/>gini = 0.124<br/>samples = 135<br/>value = [126, 9]<br/>class = no_sepsis>, fillcolor="#e78a47"] ;
145 -> 149 ;
150 [label=<Age &le; 0.087<br/>gini = 0.5<br/>samples = 6<br/>value = [3, 3]<br/>class = no_sepsis>, fillcolor="#ffffff"] ;
149 -> 150 ;
151 [label=<gini = 0.0<br/>samples = 3<br/>value = [0, 3]<br/>class = sepsis>, fillcolor="#399de5"] ;
150 -> 151 ;
152 [label=<gini = 0.0<br/>samples = 3<br/>value = [3, 0]<br/>class = no_sepsis>, fillcolor="#e58139"] ;
150 -> 152 ;
153 [label=<Age &le; 0.951<br/>gini = 0.089<br/>samples = 129<br/>value = [123, 6]<br/>class = no_sepsis>, fillcolor="#e68743"] ;
149 -> 153 ;
154 [label=<O2Sat &le; 0.893<br/>gini = 0.033<br/>samples = 118<br/>value = [116, 2]<br/>class = no_sepsis>, fillcolor="#e5833c"] ;
153 -> 154 ;
155 [label=<gini = 0.0<br/>samples = 108<br/>value = [108, 0]<br/>class = no_sepsis>, fillcolor="#e58139"] ;
154 -> 155 ;
156 [label=<SBP &le; -0.441<br/>gini = 0.32<br/>samples = 10<br/>value = [8, 2]<br/>class = no_sepsis>, fillcolor="#eca06a"] ;
154 -> 156 ;
157 [label=<gini = 0.0<br/>samples = 2<br/>value = [0, 2]<br/>class = sepsis>, fillcolor="#399de5"] ;
156 -> 157 ;
158 [label=<gini = 0.0<br/>samples = 8<br/>value = [8, 0]<br/>class = no_sepsis>, fillcolor="#e58139"] ;
156 -> 158 ;
159 [label=<Resp &le; 0.457<br/>gini = 0.463<br/>samples = 11<br/>value = [7, 4]<br/>class = no_sepsis>, fillcolor="#f4c9aa"] ;
153 -> 159 ;
160 [label=<Chloride &le; -5.844<br/>gini = 0.32<br/>samples = 5<br/>value = [1, 4]<br/>class = sepsis>, fillcolor="#6ab6ec"] ;
159 -> 160 ;
161 [label=<gini = 0.0<br/>samples = 1<br/>value = [1, 0]<br/>class = no_sepsis>, fillcolor="#e58139"] ;
160 -> 161 ;
162 [label=<gini = 0.0<br/>samples = 4<br/>value = [0, 4]<br/>class = sepsis>, fillcolor="#399de5"] ;
160 -> 162 ;
163 [label=<gini = 0.0<br/>samples = 6<br/>value = [6, 0]<br/>class = no_sepsis>, fillcolor="#e58139"] ;
159 -> 163 ;
164 [label=<PTT &le; -0.001<br/>gini = 0.449<br/>samples = 8646<br/>value = [2946, 5700]<br/>class = sepsis>, fillcolor="#9fd0f2"] ;
0 -> 164 [labeldistance=2.5, labelangle=-45, headlabel="False"] ;
165 [label=<Hct &le; -0.001<br/>gini = 0.356<br/>samples = 7262<br/>value = [1680, 5582]<br/>class = sepsis>, fillcolor="#75baed"] ;
164 -> 165 ;
166 [label=<Hours &le; -0.526<br/>gini = 0.38<br/>samples = 990<br/>value = [738, 252]<br/>class = no_sepsis>, fillcolor="#eeac7d"] ;
165 -> 166 ;
167 [label=<Lactate &le; 4.589<br/>gini = 0.373<br/>samples = 157<br/>value = [39, 118]<br/>class = sepsis>, fillcolor="#7abdee"] ;
166 -> 167 ;
168 [label=<Calcium &le; -7.678<br/>gini = 0.246<br/>samples = 132<br/>value = [19, 113]<br/>class = sepsis>, fillcolor="#5aade9"] ;
167 -> 168 ;
169 [label=<gini = 0.0<br/>samples = 4<br/>value = [4, 0]<br/>class = no_sepsis>, fillcolor="#e58139"] ;
168 -> 169 ;
170 [label=<Creatinine &le; 8.726<br/>gini = 0.207<br/>samples = 128<br/>value = [15, 113]<br/>class = sepsis>, fillcolor="#53aae8"] ;
168 -> 170 ;
171 [label=<HCO3 &le; 5.128<br/>gini = 0.152<br/>samples = 121<br/>value = [10, 111]<br/>class = sepsis>, fillcolor="#4ba6e7"] ;
170 -> 171 ;
172 [label=<Chloride &le; 6.553<br/>gini = 0.125<br/>samples = 119<br/>value = [8, 111]<br/>class = sepsis>, fillcolor="#47a4e7"] ;
171 -> 172 ;
173 [label=<Magnesium &le; 7.591<br/>gini = 0.097<br/>samples = 117<br/>value = [6, 111]<br/>class = sepsis>, fillcolor="#44a2e6"] ;
172 -> 173 ;
174 [label=<PaCO2 &le; -5.253<br/>gini = 0.082<br/>samples = 116<br/>value = [5, 111]<br/>class = sepsis>, fillcolor="#42a1e6"] ;
173 -> 174 ;
175 [label=<gini = 0.0<br/>samples = 1<br/>value = [1, 0]<br/>class = no_sepsis>, fillcolor="#e58139"] ;
174 -> 175 ;
176 [label=<ICULOS &le; -0.878<br/>gini = 0.067<br/>samples = 115<br/>value = [4, 111]<br/>class = sepsis>, fillcolor="#40a1e6"] ;
174 -> 176 ;
177 [label=<gini = 0.0<br/>samples = 1<br/>value = [1, 0]<br/>class = no_sepsis>, fillcolor="#e58139"] ;
176 -> 177 ;
178 [label=<SaO2 &le; -8.35<br/>gini = 0.051<br/>samples = 114<br/>value = [3, 111]<br/>class = sepsis>, fillcolor="#3ea0e6"] ;
176 -> 178 ;
179 [label=<Age &le; 0.34<br/>gini = 0.48<br/>samples = 5<br/>value = [2, 3]<br/>class = sepsis>, fillcolor="#bddef6"] ;
178 -> 179 ;
180 [label=<gini = 0.0<br/>samples = 2<br/>value = [2, 0]<br/>class = no_sepsis>, fillcolor="#e58139"] ;
179 -> 180 ;
181 [label=<gini = 0.0<br/>samples = 3<br/>value = [0, 3]<br/>class = sepsis>, fillcolor="#399de5"] ;
179 -> 181 ;
182 [label=<WBC &le; 12.128<br/>gini = 0.018<br/>samples = 109<br/>value = [1, 108]<br/>class = sepsis>, fillcolor="#3b9ee5"] ;
178 -> 182 ;
183 [label=<gini = 0.0<br/>samples = 107<br/>value = [0, 107]<br/>class = sepsis>, fillcolor="#399de5"] ;
182 -> 183 ;
184 [label=<BUN &le; -0.292<br/>gini = 0.5<br/>samples = 2<br/>value = [1, 1]<br/>class = no_sepsis>, fillcolor="#ffffff"] ;
182 -> 184 ;
185 [label=<gini = 0.0<br/>samples = 1<br/>value = [1, 0]<br/>class = no_sepsis>, fillcolor="#e58139"] ;
184 -> 185 ;
186 [label=<gini = 0.0<br/>samples = 1<br/>value = [0, 1]<br/>class = sepsis>, fillcolor="#399de5"] ;
184 -> 186 ;
187 [label=<gini = 0.0<br/>samples = 1<br/>value = [1, 0]<br/>class = no_sepsis>, fillcolor="#e58139"] ;
173 -> 187 ;
188 [label=<gini = 0.0<br/>samples = 2<br/>value = [2, 0]<br/>class = no_sepsis>, fillcolor="#e58139"] ;
172 -> 188 ;
189 [label=<gini = 0.0<br/>samples = 2<br/>value = [2, 0]<br/>class = no_sepsis>, fillcolor="#e58139"] ;
171 -> 189 ;
190 [label=<Hgb &le; -1.882<br/>gini = 0.408<br/>samples = 7<br/>value = [5, 2]<br/>class = no_sepsis>, fillcolor="#efb388"] ;
170 -> 190 ;
191 [label=<gini = 0.0<br/>samples = 5<br/>value = [5, 0]<br/>class = no_sepsis>, fillcolor="#e58139"] ;
190 -> 191 ;
192 [label=<gini = 0.0<br/>samples = 2<br/>value = [0, 2]<br/>class = sepsis>, fillcolor="#399de5"] ;
190 -> 192 ;
193 [label=<Hct &le; -1.384<br/>gini = 0.32<br/>samples = 25<br/>value = [20, 5]<br/>class = no_sepsis>, fillcolor="#eca06a"] ;
167 -> 193 ;
194 [label=<gini = 0.0<br/>samples = 17<br/>value = [17, 0]<br/>class = no_sepsis>, fillcolor="#e58139"] ;
193 -> 194 ;
195 [label=<Lactate &le; 23.531<br/>gini = 0.469<br/>samples = 8<br/>value = [3, 5]<br/>class = sepsis>, fillcolor="#b0d8f5"] ;
193 -> 195 ;
196 [label=<gini = 0.0<br/>samples = 5<br/>value = [0, 5]<br/>class = sepsis>, fillcolor="#399de5"] ;
195 -> 196 ;
197 [label=<gini = 0.0<br/>samples = 3<br/>value = [3, 0]<br/>class = no_sepsis>, fillcolor="#e58139"] ;
195 -> 197 ;
198 [label=<ICULOS &le; 0.556<br/>gini = 0.27<br/>samples = 833<br/>value = [699, 134]<br/>class = no_sepsis>, fillcolor="#ea995f"] ;
166 -> 198 ;
199 [label=<ICULOS &le; 0.064<br/>gini = 0.085<br/>samples = 631<br/>value = [603, 28]<br/>class = no_sepsis>, fillcolor="#e68742"] ;
198 -> 199 ;
200 [label=<SBP &le; -1.99<br/>gini = 0.012<br/>samples = 487<br/>value = [484, 3]<br/>class = no_sepsis>, fillcolor="#e5823a"] ;
199 -> 200 ;
201 [label=<gini = 0.0<br/>samples = 1<br/>value = [0, 1]<br/>class = sepsis>, fillcolor="#399de5"] ;
200 -> 201 ;
202 [label=<Platelets &le; 13.068<br/>gini = 0.008<br/>samples = 486<br/>value = [484, 2]<br/>class = no_sepsis>, fillcolor="#e5823a"] ;
200 -> 202 ;
203 [label=<Hours &le; -0.426<br/>gini = 0.004<br/>samples = 482<br/>value = [481, 1]<br/>class = no_sepsis>, fillcolor="#e58139"] ;
202 -> 203 ;
204 [label=<ICULOS &le; -0.025<br/>gini = 0.105<br/>samples = 18<br/>value = [17, 1]<br/>class = no_sepsis>, fillcolor="#e78845"] ;
203 -> 204 ;
205 [label=<gini = 0.0<br/>samples = 17<br/>value = [17, 0]<br/>class = no_sepsis>, fillcolor="#e58139"] ;
204 -> 205 ;
206 [label=<gini = 0.0<br/>samples = 1<br/>value = [0, 1]<br/>class = sepsis>, fillcolor="#399de5"] ;
204 -> 206 ;
207 [label=<gini = 0.0<br/>samples = 464<br/>value = [464, 0]<br/>class = no_sepsis>, fillcolor="#e58139"] ;
203 -> 207 ;
208 [label=<ICULOS &le; -0.274<br/>gini = 0.375<br/>samples = 4<br/>value = [3, 1]<br/>class = no_sepsis>, fillcolor="#eeab7b"] ;
202 -> 208 ;
209 [label=<gini = 0.0<br/>samples = 3<br/>value = [3, 0]<br/>class = no_sepsis>, fillcolor="#e58139"] ;
208 -> 209 ;
210 [label=<gini = 0.0<br/>samples = 1<br/>value = [0, 1]<br/>class = sepsis>, fillcolor="#399de5"] ;
208 -> 210 ;
211 [label=<Hours &le; -0.3<br/>gini = 0.287<br/>samples = 144<br/>value = [119, 25]<br/>class = no_sepsis>, fillcolor="#ea9b63"] ;
199 -> 211 ;
212 [label=<O2Sat &le; -1.403<br/>gini = 0.219<br/>samples = 16<br/>value = [2, 14]<br/>class = sepsis>, fillcolor="#55abe9"] ;
211 -> 212 ;
213 [label=<gini = 0.0<br/>samples = 1<br/>value = [1, 0]<br/>class = no_sepsis>, fillcolor="#e58139"] ;
212 -> 213 ;
214 [label=<BaseExcess &le; -7.866<br/>gini = 0.124<br/>samples = 15<br/>value = [1, 14]<br/>class = sepsis>, fillcolor="#47a4e7"] ;
212 -> 214 ;
215 [label=<gini = 0.0<br/>samples = 1<br/>value = [1, 0]<br/>class = no_sepsis>, fillcolor="#e58139"] ;
214 -> 215 ;
216 [label=<gini = 0.0<br/>samples = 14<br/>value = [0, 14]<br/>class = sepsis>, fillcolor="#399de5"] ;
214 -> 216 ;
217 [label=<HospAdmTime &le; 0.337<br/>gini = 0.157<br/>samples = 128<br/>value = [117, 11]<br/>class = no_sepsis>, fillcolor="#e78d4c"] ;
211 -> 217 ;
218 [label=<Creatinine &le; 11.204<br/>gini = 0.055<br/>samples = 106<br/>value = [103, 3]<br/>class = no_sepsis>, fillcolor="#e6853f"] ;
217 -> 218 ;
219 [label=<Temp &le; 3.003<br/>gini = 0.037<br/>samples = 105<br/>value = [103, 2]<br/>class = no_sepsis>, fillcolor="#e6833d"] ;
218 -> 219 ;
220 [label=<HospAdmTime &le; -5.3<br/>gini = 0.019<br/>samples = 103<br/>value = [102, 1]<br/>class = no_sepsis>, fillcolor="#e5823b"] ;
219 -> 220 ;
221 [label=<WBC &le; -1.202<br/>gini = 0.375<br/>samples = 4<br/>value = [3, 1]<br/>class = no_sepsis>, fillcolor="#eeab7b"] ;
220 -> 221 ;
222 [label=<gini = 0.0<br/>samples = 1<br/>value = [0, 1]<br/>class = sepsis>, fillcolor="#399de5"] ;
221 -> 222 ;
223 [label=<gini = 0.0<br/>samples = 3<br/>value = [3, 0]<br/>class = no_sepsis>, fillcolor="#e58139"] ;
221 -> 223 ;
224 [label=<gini = 0.0<br/>samples = 99<br/>value = [99, 0]<br/>class = no_sepsis>, fillcolor="#e58139"] ;
220 -> 224 ;
225 [label=<Magnesium &le; -0.193<br/>gini = 0.5<br/>samples = 2<br/>value = [1, 1]<br/>class = no_sepsis>, fillcolor="#ffffff"] ;
219 -> 225 ;
226 [label=<gini = 0.0<br/>samples = 1<br/>value = [0, 1]<br/>class = sepsis>, fillcolor="#399de5"] ;
225 -> 226 ;
227 [label=<gini = 0.0<br/>samples = 1<br/>value = [1, 0]<br/>class = no_sepsis>, fillcolor="#e58139"] ;
225 -> 227 ;
228 [label=<gini = 0.0<br/>samples = 1<br/>value = [0, 1]<br/>class = sepsis>, fillcolor="#399de5"] ;
218 -> 228 ;
229 [label=<MAP &le; 0.059<br/>gini = 0.463<br/>samples = 22<br/>value = [14, 8]<br/>class = no_sepsis>, fillcolor="#f4c9aa"] ;
217 -> 229 ;
230 [label=<SaO2 &le; 2.126<br/>gini = 0.133<br/>samples = 14<br/>value = [13, 1]<br/>class = no_sepsis>, fillcolor="#e78b48"] ;
229 -> 230 ;
231 [label=<gini = 0.0<br/>samples = 13<br/>value = [13, 0]<br/>class = no_sepsis>, fillcolor="#e58139"] ;
230 -> 231 ;
232 [label=<gini = 0.0<br/>samples = 1<br/>value = [0, 1]<br/>class = sepsis>, fillcolor="#399de5"] ;
230 -> 232 ;
233 [label=<WBC &le; -3.144<br/>gini = 0.219<br/>samples = 8<br/>value = [1, 7]<br/>class = sepsis>, fillcolor="#55abe9"] ;
229 -> 233 ;
234 [label=<gini = 0.0<br/>samples = 1<br/>value = [1, 0]<br/>class = no_sepsis>, fillcolor="#e58139"] ;
233 -> 234 ;
235 [label=<gini = 0.0<br/>samples = 7<br/>value = [0, 7]<br/>class = sepsis>, fillcolor="#399de5"] ;
233 -> 235 ;
236 [label=<Hct &le; -0.209<br/>gini = 0.499<br/>samples = 202<br/>value = [96, 106]<br/>class = sepsis>, fillcolor="#ecf6fd"] ;
198 -> 236 ;
237 [label=<BUN &le; 2.783<br/>gini = 0.435<br/>samples = 153<br/>value = [49, 104]<br/>class = sepsis>, fillcolor="#96cbf1"] ;
236 -> 237 ;
238 [label=<WBC &le; -3.796<br/>gini = 0.309<br/>samples = 115<br/>value = [22, 93]<br/>class = sepsis>, fillcolor="#68b4eb"] ;
237 -> 238 ;
239 [label=<gini = 0.0<br/>samples = 6<br/>value = [6, 0]<br/>class = no_sepsis>, fillcolor="#e58139"] ;
238 -> 239 ;
240 [label=<Hours &le; 2.233<br/>gini = 0.25<br/>samples = 109<br/>value = [16, 93]<br/>class = sepsis>, fillcolor="#5baee9"] ;
238 -> 240 ;
241 [label=<Phosphate &le; -4.517<br/>gini = 0.116<br/>samples = 81<br/>value = [5, 76]<br/>class = sepsis>, fillcolor="#46a3e7"] ;
240 -> 241 ;
242 [label=<gini = 0.0<br/>samples = 2<br/>value = [2, 0]<br/>class = no_sepsis>, fillcolor="#e58139"] ;
241 -> 242 ;
243 [label=<Bilirubin_direct &le; 16.392<br/>gini = 0.073<br/>samples = 79<br/>value = [3, 76]<br/>class = sepsis>, fillcolor="#41a1e6"] ;
241 -> 243 ;
244 [label=<PaCO2 &le; -5.438<br/>gini = 0.05<br/>samples = 78<br/>value = [2, 76]<br/>class = sepsis>, fillcolor="#3ea0e6"] ;
243 -> 244 ;
245 [label=<gini = 0.0<br/>samples = 1<br/>value = [1, 0]<br/>class = no_sepsis>, fillcolor="#e58139"] ;
244 -> 245 ;
246 [label=<ICULOS &le; 7.047<br/>gini = 0.026<br/>samples = 77<br/>value = [1, 76]<br/>class = sepsis>, fillcolor="#3c9ee5"] ;
244 -> 246 ;
247 [label=<gini = 0.0<br/>samples = 76<br/>value = [0, 76]<br/>class = sepsis>, fillcolor="#399de5"] ;
246 -> 247 ;
248 [label=<gini = 0.0<br/>samples = 1<br/>value = [1, 0]<br/>class = no_sepsis>, fillcolor="#e58139"] ;
246 -> 248 ;
249 [label=<gini = 0.0<br/>samples = 1<br/>value = [1, 0]<br/>class = no_sepsis>, fillcolor="#e58139"] ;
243 -> 249 ;
250 [label=<ICULOS &le; 3.797<br/>gini = 0.477<br/>samples = 28<br/>value = [11, 17]<br/>class = sepsis>, fillcolor="#b9dcf6"] ;
240 -> 250 ;
251 [label=<gini = 0.0<br/>samples = 8<br/>value = [8, 0]<br/>class = no_sepsis>, fillcolor="#e58139"] ;
250 -> 251 ;
252 [label=<BaseExcess &le; 5.003<br/>gini = 0.255<br/>samples = 20<br/>value = [3, 17]<br/>class = sepsis>, fillcolor="#5caeea"] ;
250 -> 252 ;
253 [label=<Platelets &le; 15.944<br/>gini = 0.105<br/>samples = 18<br/>value = [1, 17]<br/>class = sepsis>, fillcolor="#45a3e7"] ;
252 -> 253 ;
254 [label=<gini = 0.0<br/>samples = 17<br/>value = [0, 17]<br/>class = sepsis>, fillcolor="#399de5"] ;
253 -> 254 ;
255 [label=<gini = 0.0<br/>samples = 1<br/>value = [1, 0]<br/>class = no_sepsis>, fillcolor="#e58139"] ;
253 -> 255 ;
256 [label=<gini = 0.0<br/>samples = 2<br/>value = [2, 0]<br/>class = no_sepsis>, fillcolor="#e58139"] ;
252 -> 256 ;
257 [label=<Potassium &le; 5.293<br/>gini = 0.411<br/>samples = 38<br/>value = [27, 11]<br/>class = no_sepsis>, fillcolor="#f0b48a"] ;
237 -> 257 ;
258 [label=<O2Sat &le; -0.435<br/>gini = 0.327<br/>samples = 34<br/>value = [27, 7]<br/>class = no_sepsis>, fillcolor="#eca26c"] ;
257 -> 258 ;
259 [label=<ICULOS &le; 1.201<br/>gini = 0.494<br/>samples = 9<br/>value = [4, 5]<br/>class = sepsis>, fillcolor="#d7ebfa"] ;
258 -> 259 ;
260 [label=<gini = 0.0<br/>samples = 4<br/>value = [4, 0]<br/>class = no_sepsis>, fillcolor="#e58139"] ;
259 -> 260 ;
261 [label=<gini = 0.0<br/>samples = 5<br/>value = [0, 5]<br/>class = sepsis>, fillcolor="#399de5"] ;
259 -> 261 ;
262 [label=<Resp &le; 2.288<br/>gini = 0.147<br/>samples = 25<br/>value = [23, 2]<br/>class = no_sepsis>, fillcolor="#e78c4a"] ;
258 -> 262 ;
263 [label=<Bilirubin_total &le; -2.802<br/>gini = 0.08<br/>samples = 24<br/>value = [23, 1]<br/>class = no_sepsis>, fillcolor="#e68642"] ;
262 -> 263 ;
264 [label=<gini = 0.0<br/>samples = 1<br/>value = [0, 1]<br/>class = sepsis>, fillcolor="#399de5"] ;
263 -> 264 ;
265 [label=<gini = 0.0<br/>samples = 23<br/>value = [23, 0]<br/>class = no_sepsis>, fillcolor="#e58139"] ;
263 -> 265 ;
266 [label=<gini = 0.0<br/>samples = 1<br/>value = [0, 1]<br/>class = sepsis>, fillcolor="#399de5"] ;
262 -> 266 ;
267 [label=<gini = 0.0<br/>samples = 4<br/>value = [0, 4]<br/>class = sepsis>, fillcolor="#399de5"] ;
257 -> 267 ;
268 [label=<HospAdmTime &le; 0.337<br/>gini = 0.078<br/>samples = 49<br/>value = [47, 2]<br/>class = no_sepsis>, fillcolor="#e68641"] ;
236 -> 268 ;
269 [label=<gini = 0.0<br/>samples = 47<br/>value = [47, 0]<br/>class = no_sepsis>, fillcolor="#e58139"] ;
268 -> 269 ;
270 [label=<gini = 0.0<br/>samples = 2<br/>value = [0, 2]<br/>class = sepsis>, fillcolor="#399de5"] ;
268 -> 270 ;
271 [label=<Hct &le; -0.001<br/>gini = 0.255<br/>samples = 6272<br/>value = [942, 5330]<br/>class = sepsis>, fillcolor="#5caeea"] ;
165 -> 271 ;
272 [label=<Glucose &le; -0.002<br/>gini = 0.119<br/>samples = 5480<br/>value = [349, 5131]<br/>class = sepsis>, fillcolor="#46a4e7"] ;
271 -> 272 ;
273 [label=<Glucose &le; -0.002<br/>gini = 0.078<br/>samples = 5239<br/>value = [213, 5026]<br/>class = sepsis>, fillcolor="#41a1e6"] ;
272 -> 273 ;
274 [label=<Glucose &le; -0.088<br/>gini = 0.464<br/>samples = 262<br/>value = [96, 166]<br/>class = sepsis>, fillcolor="#acd6f4"] ;
273 -> 274 ;
275 [label=<HCO3 &le; -3.676<br/>gini = 0.372<br/>samples = 219<br/>value = [54, 165]<br/>class = sepsis>, fillcolor="#7abdee"] ;
274 -> 275 ;
276 [label=<O2Sat &le; 0.074<br/>gini = 0.412<br/>samples = 31<br/>value = [22, 9]<br/>class = no_sepsis>, fillcolor="#f0b58a"] ;
275 -> 276 ;
277 [label=<Magnesium &le; 9.468<br/>gini = 0.444<br/>samples = 12<br/>value = [4, 8]<br/>class = sepsis>, fillcolor="#9ccef2"] ;
276 -> 277 ;
278 [label=<FiO2 &le; 0.886<br/>gini = 0.198<br/>samples = 9<br/>value = [1, 8]<br/>class = sepsis>, fillcolor="#52a9e8"] ;
277 -> 278 ;
279 [label=<gini = 0.0<br/>samples = 8<br/>value = [0, 8]<br/>class = sepsis>, fillcolor="#399de5"] ;
278 -> 279 ;
280 [label=<gini = 0.0<br/>samples = 1<br/>value = [1, 0]<br/>class = no_sepsis>, fillcolor="#e58139"] ;
278 -> 280 ;
281 [label=<gini = 0.0<br/>samples = 3<br/>value = [3, 0]<br/>class = no_sepsis>, fillcolor="#e58139"] ;
277 -> 281 ;
282 [label=<Phosphate &le; -5.266<br/>gini = 0.1<br/>samples = 19<br/>value = [18, 1]<br/>class = no_sepsis>, fillcolor="#e68844"] ;
276 -> 282 ;
283 [label=<HospAdmTime &le; 0.189<br/>gini = 0.444<br/>samples = 3<br/>value = [2, 1]<br/>class = no_sepsis>, fillcolor="#f2c09c"] ;
282 -> 283 ;
284 [label=<gini = 0.0<br/>samples = 1<br/>value = [0, 1]<br/>class = sepsis>, fillcolor="#399de5"] ;
283 -> 284 ;
285 [label=<gini = 0.0<br/>samples = 2<br/>value = [2, 0]<br/>class = no_sepsis>, fillcolor="#e58139"] ;
283 -> 285 ;
286 [label=<gini = 0.0<br/>samples = 16<br/>value = [16, 0]<br/>class = no_sepsis>, fillcolor="#e58139"] ;
282 -> 286 ;
287 [label=<Chloride &le; -3.656<br/>gini = 0.282<br/>samples = 188<br/>value = [32, 156]<br/>class = sepsis>, fillcolor="#62b1ea"] ;
275 -> 287 ;
288 [label=<Hours &le; -0.812<br/>gini = 0.231<br/>samples = 15<br/>value = [13, 2]<br/>class = no_sepsis>, fillcolor="#e99457"] ;
287 -> 288 ;
289 [label=<gini = 0.0<br/>samples = 1<br/>value = [0, 1]<br/>class = sepsis>, fillcolor="#399de5"] ;
288 -> 289 ;
290 [label=<Lactate &le; -2.091<br/>gini = 0.133<br/>samples = 14<br/>value = [13, 1]<br/>class = no_sepsis>, fillcolor="#e78b48"] ;
288 -> 290 ;
291 [label=<DBP &le; 0.493<br/>gini = 0.5<br/>samples = 2<br/>value = [1, 1]<br/>class = no_sepsis>, fillcolor="#ffffff"] ;
290 -> 291 ;
292 [label=<gini = 0.0<br/>samples = 1<br/>value = [1, 0]<br/>class = no_sepsis>, fillcolor="#e58139"] ;
291 -> 292 ;
293 [label=<gini = 0.0<br/>samples = 1<br/>value = [0, 1]<br/>class = sepsis>, fillcolor="#399de5"] ;
291 -> 293 ;
294 [label=<gini = 0.0<br/>samples = 12<br/>value = [12, 0]<br/>class = no_sepsis>, fillcolor="#e58139"] ;
290 -> 294 ;
295 [label=<pH &le; -5.357<br/>gini = 0.196<br/>samples = 173<br/>value = [19, 154]<br/>class = sepsis>, fillcolor="#51a9e8"] ;
287 -> 295 ;
296 [label=<SBP &le; -0.482<br/>gini = 0.278<br/>samples = 6<br/>value = [5, 1]<br/>class = no_sepsis>, fillcolor="#ea9a61"] ;
295 -> 296 ;
297 [label=<gini = 0.0<br/>samples = 5<br/>value = [5, 0]<br/>class = no_sepsis>, fillcolor="#e58139"] ;
296 -> 297 ;
298 [label=<gini = 0.0<br/>samples = 1<br/>value = [0, 1]<br/>class = sepsis>, fillcolor="#399de5"] ;
296 -> 298 ;
299 [label=<HospAdmTime &le; -3.16<br/>gini = 0.154<br/>samples = 167<br/>value = [14, 153]<br/>class = sepsis>, fillcolor="#4ba6e7"] ;
295 -> 299 ;
300 [label=<O2Sat &le; 0.124<br/>gini = 0.49<br/>samples = 7<br/>value = [4, 3]<br/>class = no_sepsis>, fillcolor="#f8e0ce"] ;
299 -> 300 ;
301 [label=<gini = 0.0<br/>samples = 3<br/>value = [3, 0]<br/>class = no_sepsis>, fillcolor="#e58139"] ;
300 -> 301 ;
302 [label=<Unit2 &le; 0.571<br/>gini = 0.375<br/>samples = 4<br/>value = [1, 3]<br/>class = sepsis>, fillcolor="#7bbeee"] ;
300 -> 302 ;
303 [label=<gini = 0.0<br/>samples = 3<br/>value = [0, 3]<br/>class = sepsis>, fillcolor="#399de5"] ;
302 -> 303 ;
304 [label=<gini = 0.0<br/>samples = 1<br/>value = [1, 0]<br/>class = no_sepsis>, fillcolor="#e58139"] ;
302 -> 304 ;
305 [label=<DBP &le; 3.546<br/>gini = 0.117<br/>samples = 160<br/>value = [10, 150]<br/>class = sepsis>, fillcolor="#46a4e7"] ;
299 -> 305 ;
306 [label=<Calcium &le; -6.865<br/>gini = 0.096<br/>samples = 158<br/>value = [8, 150]<br/>class = sepsis>, fillcolor="#44a2e6"] ;
305 -> 306 ;
307 [label=<gini = 0.0<br/>samples = 2<br/>value = [2, 0]<br/>class = no_sepsis>, fillcolor="#e58139"] ;
306 -> 307 ;
308 [label=<Phosphate &le; -7.761<br/>gini = 0.074<br/>samples = 156<br/>value = [6, 150]<br/>class = sepsis>, fillcolor="#41a1e6"] ;
306 -> 308 ;
309 [label=<gini = 0.0<br/>samples = 1<br/>value = [1, 0]<br/>class = no_sepsis>, fillcolor="#e58139"] ;
308 -> 309 ;
310 [label=<Temp &le; -12.319<br/>gini = 0.062<br/>samples = 155<br/>value = [5, 150]<br/>class = sepsis>, fillcolor="#40a0e6"] ;
308 -> 310 ;
311 [label=<gini = 0.0<br/>samples = 1<br/>value = [1, 0]<br/>class = no_sepsis>, fillcolor="#e58139"] ;
310 -> 311 ;
312 [label=<Hgb &le; -0.254<br/>gini = 0.051<br/>samples = 154<br/>value = [4, 150]<br/>class = sepsis>, fillcolor="#3ea0e6"] ;
310 -> 312 ;
313 [label=<gini = 0.0<br/>samples = 1<br/>value = [1, 0]<br/>class = no_sepsis>, fillcolor="#e58139"] ;
312 -> 313 ;
314 [label=<Hours &le; 5.338<br/>gini = 0.038<br/>samples = 153<br/>value = [3, 150]<br/>class = sepsis>, fillcolor="#3d9fe6"] ;
312 -> 314 ;
315 [label=<Chloride &le; 8.4<br/>gini = 0.026<br/>samples = 152<br/>value = [2, 150]<br/>class = sepsis>, fillcolor="#3c9ee5"] ;
314 -> 315 ;
316 [label=<Glucose &le; -0.128<br/>gini = 0.013<br/>samples = 150<br/>value = [1, 149]<br/>class = sepsis>, fillcolor="#3a9ee5"] ;
315 -> 316 ;
317 [label=<gini = 0.0<br/>samples = 144<br/>value = [0, 144]<br/>class = sepsis>, fillcolor="#399de5"] ;
316 -> 317 ;
318 [label=<ICULOS &le; 3.011<br/>gini = 0.278<br/>samples = 6<br/>value = [1, 5]<br/>class = sepsis>, fillcolor="#61b1ea"] ;
316 -> 318 ;
319 [label=<gini = 0.0<br/>samples = 5<br/>value = [0, 5]<br/>class = sepsis>, fillcolor="#399de5"] ;
318 -> 319 ;
320 [label=<gini = 0.0<br/>samples = 1<br/>value = [1, 0]<br/>class = no_sepsis>, fillcolor="#e58139"] ;
318 -> 320 ;
321 [label=<Calcium &le; 6.226<br/>gini = 0.5<br/>samples = 2<br/>value = [1, 1]<br/>class = no_sepsis>, fillcolor="#ffffff"] ;
315 -> 321 ;
322 [label=<gini = 0.0<br/>samples = 1<br/>value = [0, 1]<br/>class = sepsis>, fillcolor="#399de5"] ;
321 -> 322 ;
323 [label=<gini = 0.0<br/>samples = 1<br/>value = [1, 0]<br/>class = no_sepsis>, fillcolor="#e58139"] ;
321 -> 323 ;
324 [label=<gini = 0.0<br/>samples = 1<br/>value = [1, 0]<br/>class = no_sepsis>, fillcolor="#e58139"] ;
314 -> 324 ;
325 [label=<gini = 0.0<br/>samples = 2<br/>value = [2, 0]<br/>class = no_sepsis>, fillcolor="#e58139"] ;
305 -> 325 ;
326 [label=<Hours &le; -0.775<br/>gini = 0.045<br/>samples = 43<br/>value = [42, 1]<br/>class = no_sepsis>, fillcolor="#e6843e"] ;
274 -> 326 ;
327 [label=<gini = 0.0<br/>samples = 1<br/>value = [0, 1]<br/>class = sepsis>, fillcolor="#399de5"] ;
326 -> 327 ;
328 [label=<gini = 0.0<br/>samples = 42<br/>value = [42, 0]<br/>class = no_sepsis>, fillcolor="#e58139"] ;
326 -> 328 ;
329 [label=<BaseExcess &le; -6.486<br/>gini = 0.046<br/>samples = 4977<br/>value = [117, 4860]<br/>class = sepsis>, fillcolor="#3e9fe6"] ;
273 -> 329 ;
330 [label=<Hours &le; -0.885<br/>gini = 0.427<br/>samples = 42<br/>value = [29, 13]<br/>class = no_sepsis>, fillcolor="#f1b992"] ;
329 -> 330 ;
331 [label=<Lactate &le; 13.741<br/>gini = 0.198<br/>samples = 9<br/>value = [1, 8]<br/>class = sepsis>, fillcolor="#52a9e8"] ;
330 -> 331 ;
332 [label=<gini = 0.0<br/>samples = 8<br/>value = [0, 8]<br/>class = sepsis>, fillcolor="#399de5"] ;
331 -> 332 ;
333 [label=<gini = 0.0<br/>samples = 1<br/>value = [1, 0]<br/>class = no_sepsis>, fillcolor="#e58139"] ;
331 -> 333 ;
334 [label=<FiO2 &le; -1.136<br/>gini = 0.257<br/>samples = 33<br/>value = [28, 5]<br/>class = no_sepsis>, fillcolor="#ea985c"] ;
330 -> 334 ;
335 [label=<gini = 0.0<br/>samples = 2<br/>value = [0, 2]<br/>class = sepsis>, fillcolor="#399de5"] ;
334 -> 335 ;
336 [label=<HR &le; -0.767<br/>gini = 0.175<br/>samples = 31<br/>value = [28, 3]<br/>class = no_sepsis>, fillcolor="#e88e4e"] ;
334 -> 336 ;
337 [label=<Lactate &le; 11.54<br/>gini = 0.444<br/>samples = 3<br/>value = [1, 2]<br/>class = sepsis>, fillcolor="#9ccef2"] ;
336 -> 337 ;
338 [label=<gini = 0.0<br/>samples = 2<br/>value = [0, 2]<br/>class = sepsis>, fillcolor="#399de5"] ;
337 -> 338 ;
339 [label=<gini = 0.0<br/>samples = 1<br/>value = [1, 0]<br/>class = no_sepsis>, fillcolor="#e58139"] ;
337 -> 339 ;
340 [label=<PaCO2 &le; 8.648<br/>gini = 0.069<br/>samples = 28<br/>value = [27, 1]<br/>class = no_sepsis>, fillcolor="#e68640"] ;
336 -> 340 ;
341 [label=<gini = 0.0<br/>samples = 25<br/>value = [25, 0]<br/>class = no_sepsis>, fillcolor="#e58139"] ;
340 -> 341 ;
342 [label=<Hours &le; -0.396<br/>gini = 0.444<br/>samples = 3<br/>value = [2, 1]<br/>class = no_sepsis>, fillcolor="#f2c09c"] ;
340 -> 342 ;
343 [label=<gini = 0.0<br/>samples = 1<br/>value = [0, 1]<br/>class = sepsis>, fillcolor="#399de5"] ;
342 -> 343 ;
344 [label=<gini = 0.0<br/>samples = 2<br/>value = [2, 0]<br/>class = no_sepsis>, fillcolor="#e58139"] ;
342 -> 344 ;
345 [label=<O2Sat &le; -6.087<br/>gini = 0.035<br/>samples = 4935<br/>value = [88, 4847]<br/>class = sepsis>, fillcolor="#3d9fe5"] ;
329 -> 345 ;
346 [label=<Hours &le; 0.118<br/>gini = 0.465<br/>samples = 19<br/>value = [12, 7]<br/>class = no_sepsis>, fillcolor="#f4caac"] ;
345 -> 346 ;
347 [label=<MAP &le; -0.253<br/>gini = 0.153<br/>samples = 12<br/>value = [11, 1]<br/>class = no_sepsis>, fillcolor="#e78c4b"] ;
346 -> 347 ;
348 [label=<gini = 0.0<br/>samples = 11<br/>value = [11, 0]<br/>class = no_sepsis>, fillcolor="#e58139"] ;
347 -> 348 ;
349 [label=<gini = 0.0<br/>samples = 1<br/>value = [0, 1]<br/>class = sepsis>, fillcolor="#399de5"] ;
347 -> 349 ;
350 [label=<Unit2 &le; -0.476<br/>gini = 0.245<br/>samples = 7<br/>value = [1, 6]<br/>class = sepsis>, fillcolor="#5aade9"] ;
346 -> 350 ;
351 [label=<gini = 0.0<br/>samples = 6<br/>value = [0, 6]<br/>class = sepsis>, fillcolor="#399de5"] ;
350 -> 351 ;
352 [label=<gini = 0.0<br/>samples = 1<br/>value = [1, 0]<br/>class = no_sepsis>, fillcolor="#e58139"] ;
350 -> 352 ;
353 [label=<Potassium &le; -0.001<br/>gini = 0.03<br/>samples = 4916<br/>value = [76, 4840]<br/>class = sepsis>, fillcolor="#3c9fe5"] ;
345 -> 353 ;
354 [label=<Potassium &le; -0.211<br/>gini = 0.429<br/>samples = 61<br/>value = [19, 42]<br/>class = sepsis>, fillcolor="#93c9f1"] ;
353 -> 354 ;
355 [label=<Temp &le; -0.659<br/>gini = 0.269<br/>samples = 50<br/>value = [8, 42]<br/>class = sepsis>, fillcolor="#5fb0ea"] ;
354 -> 355 ;
356 [label=<SBP &le; -0.101<br/>gini = 0.469<br/>samples = 8<br/>value = [5, 3]<br/>class = no_sepsis>, fillcolor="#f5cdb0"] ;
355 -> 356 ;
357 [label=<gini = 0.0<br/>samples = 4<br/>value = [4, 0]<br/>class = no_sepsis>, fillcolor="#e58139"] ;
356 -> 357 ;
358 [label=<SaO2 &le; -0.056<br/>gini = 0.375<br/>samples = 4<br/>value = [1, 3]<br/>class = sepsis>, fillcolor="#7bbeee"] ;
356 -> 358 ;
359 [label=<gini = 0.0<br/>samples = 1<br/>value = [1, 0]<br/>class = no_sepsis>, fillcolor="#e58139"] ;
358 -> 359 ;
360 [label=<gini = 0.0<br/>samples = 3<br/>value = [0, 3]<br/>class = sepsis>, fillcolor="#399de5"] ;
358 -> 360 ;
361 [label=<Magnesium &le; 9.937<br/>gini = 0.133<br/>samples = 42<br/>value = [3, 39]<br/>class = sepsis>, fillcolor="#48a5e7"] ;
355 -> 361 ;
362 [label=<PaCO2 &le; 12.865<br/>gini = 0.049<br/>samples = 40<br/>value = [1, 39]<br/>class = sepsis>, fillcolor="#3ea0e6"] ;
361 -> 362 ;
363 [label=<gini = 0.0<br/>samples = 39<br/>value = [0, 39]<br/>class = sepsis>, fillcolor="#399de5"] ;
362 -> 363 ;
364 [label=<gini = 0.0<br/>samples = 1<br/>value = [1, 0]<br/>class = no_sepsis>, fillcolor="#e58139"] ;
362 -> 364 ;
365 [label=<gini = 0.0<br/>samples = 2<br/>value = [2, 0]<br/>class = no_sepsis>, fillcolor="#e58139"] ;
361 -> 365 ;
366 [label=<gini = 0.0<br/>samples = 11<br/>value = [11, 0]<br/>class = no_sepsis>, fillcolor="#e58139"] ;
354 -> 366 ;
367 [label=<Potassium &le; 0.001<br/>gini = 0.023<br/>samples = 4855<br/>value = [57, 4798]<br/>class = sepsis>, fillcolor="#3b9ee5"] ;
353 -> 367 ;
368 [label=<pH &le; -7.36<br/>gini = 0.018<br/>samples = 4802<br/>value = [44, 4758]<br/>class = sepsis>, fillcolor="#3b9ee5"] ;
367 -> 368 ;
369 [label=<BaseExcess &le; -1.463<br/>gini = 0.486<br/>samples = 12<br/>value = [5, 7]<br/>class = sepsis>, fillcolor="#c6e3f8"] ;
368 -> 369 ;
370 [label=<gini = 0.0<br/>samples = 6<br/>value = [0, 6]<br/>class = sepsis>, fillcolor="#399de5"] ;
369 -> 370 ;
371 [label=<SaO2 &le; 2.054<br/>gini = 0.278<br/>samples = 6<br/>value = [5, 1]<br/>class = no_sepsis>, fillcolor="#ea9a61"] ;
369 -> 371 ;
372 [label=<gini = 0.0<br/>samples = 5<br/>value = [5, 0]<br/>class = no_sepsis>, fillcolor="#e58139"] ;
371 -> 372 ;
373 [label=<gini = 0.0<br/>samples = 1<br/>value = [0, 1]<br/>class = sepsis>, fillcolor="#399de5"] ;
371 -> 373 ;
374 [label=<WBC &le; 55.04<br/>gini = 0.016<br/>samples = 4790<br/>value = [39, 4751]<br/>class = sepsis>, fillcolor="#3b9ee5"] ;
368 -> 374 ;
375 [label=<PaCO2 &le; 19.027<br/>gini = 0.015<br/>samples = 4788<br/>value = [37, 4751]<br/>class = sepsis>, fillcolor="#3b9ee5"] ;
374 -> 375 ;
376 [label=<Magnesium &le; -0.004<br/>gini = 0.015<br/>samples = 4785<br/>value = [35, 4750]<br/>class = sepsis>, fillcolor="#3a9ee5"] ;
375 -> 376 ;
377 [label=<BaseExcess &le; 0.003<br/>gini = 0.444<br/>samples = 3<br/>value = [2, 1]<br/>class = no_sepsis>, fillcolor="#f2c09c"] ;
376 -> 377 ;
378 [label=<gini = 0.0<br/>samples = 1<br/>value = [0, 1]<br/>class = sepsis>, fillcolor="#399de5"] ;
377 -> 378 ;
379 [label=<gini = 0.0<br/>samples = 2<br/>value = [2, 0]<br/>class = no_sepsis>, fillcolor="#e58139"] ;
377 -> 379 ;
380 [label=<BaseExcess &le; -0.008<br/>gini = 0.014<br/>samples = 4782<br/>value = [33, 4749]<br/>class = sepsis>, fillcolor="#3a9ee5"] ;
376 -> 380 ;
381 [label=<BaseExcess &le; -0.247<br/>gini = 0.159<br/>samples = 172<br/>value = [15, 157]<br/>class = sepsis>, fillcolor="#4ca6e7"] ;
380 -> 381 ;
382 [label=<MAP &le; 3.002<br/>gini = 0.025<br/>samples = 159<br/>value = [2, 157]<br/>class = sepsis>, fillcolor="#3c9ee5"] ;
381 -> 382 ;
383 [label=<PaCO2 &le; -7.6<br/>gini = 0.013<br/>samples = 158<br/>value = [1, 157]<br/>class = sepsis>, fillcolor="#3a9ee5"] ;
382 -> 383 ;
384 [label=<HR &le; 3.211<br/>gini = 0.5<br/>samples = 2<br/>value = [1, 1]<br/>class = no_sepsis>, fillcolor="#ffffff"] ;
383 -> 384 ;
385 [label=<gini = 0.0<br/>samples = 1<br/>value = [1, 0]<br/>class = no_sepsis>, fillcolor="#e58139"] ;
384 -> 385 ;
386 [label=<gini = 0.0<br/>samples = 1<br/>value = [0, 1]<br/>class = sepsis>, fillcolor="#399de5"] ;
384 -> 386 ;
387 [label=<gini = 0.0<br/>samples = 156<br/>value = [0, 156]<br/>class = sepsis>, fillcolor="#399de5"] ;
383 -> 387 ;
388 [label=<gini = 0.0<br/>samples = 1<br/>value = [1, 0]<br/>class = no_sepsis>, fillcolor="#e58139"] ;
382 -> 388 ;
389 [label=<gini = 0.0<br/>samples = 13<br/>value = [13, 0]<br/>class = no_sepsis>, fillcolor="#e58139"] ;
381 -> 389 ;
390 [label=<DBP &le; 15.855<br/>gini = 0.008<br/>samples = 4610<br/>value = [18, 4592]<br/>class = sepsis>, fillcolor="#3a9de5"] ;
380 -> 390 ;
391 [label=<MAP &le; 10.786<br/>gini = 0.007<br/>samples = 4609<br/>value = [17, 4592]<br/>class = sepsis>, fillcolor="#3a9de5"] ;
390 -> 391 ;
392 [label=<Platelets &le; 0.947<br/>gini = 0.007<br/>samples = 4608<br/>value = [16, 4592]<br/>class = sepsis>, fillcolor="#3a9de5"] ;
391 -> 392 ;
393 [label=<Bilirubin_total &le; -0.035<br/>gini = 0.006<br/>samples = 4607<br/>value = [15, 4592]<br/>class = sepsis>, fillcolor="#3a9de5"] ;
392 -> 393 ;
394 [label=<O2Sat &le; -0.363<br/>gini = 0.5<br/>samples = 2<br/>value = [1, 1]<br/>class = no_sepsis>, fillcolor="#ffffff"] ;
393 -> 394 ;
395 [label=<gini = 0.0<br/>samples = 1<br/>value = [1, 0]<br/>class = no_sepsis>, fillcolor="#e58139"] ;
394 -> 395 ;
396 [label=<gini = 0.0<br/>samples = 1<br/>value = [0, 1]<br/>class = sepsis>, fillcolor="#399de5"] ;
394 -> 396 ;
397 [label=<Lactate &le; 7.485<br/>gini = 0.006<br/>samples = 4605<br/>value = [14, 4591]<br/>class = sepsis>, fillcolor="#3a9de5"] ;
393 -> 397 ;
398 [label=<BaseExcess &le; 9.85<br/>gini = 0.006<br/>samples = 4603<br/>value = [13, 4590]<br/>class = sepsis>, fillcolor="#3a9de5"] ;
397 -> 398 ;
399 [label=<Platelets &le; -0.076<br/>gini = 0.005<br/>samples = 4599<br/>value = [12, 4587]<br/>class = sepsis>, fillcolor="#3a9de5"] ;
398 -> 399 ;
400 [label=<Platelets &le; -1.814<br/>gini = 0.278<br/>samples = 6<br/>value = [1, 5]<br/>class = sepsis>, fillcolor="#61b1ea"] ;
399 -> 400 ;
401 [label=<gini = 0.0<br/>samples = 5<br/>value = [0, 5]<br/>class = sepsis>, fillcolor="#399de5"] ;
400 -> 401 ;
402 [label=<gini = 0.0<br/>samples = 1<br/>value = [1, 0]<br/>class = no_sepsis>, fillcolor="#e58139"] ;
400 -> 402 ;
403 [label=<BaseExcess &le; 0.001<br/>gini = 0.005<br/>samples = 4593<br/>value = [11, 4582]<br/>class = sepsis>, fillcolor="#399de5"] ;
399 -> 403 ;
404 [label=<DBP &le; 5.899<br/>gini = 0.002<br/>samples = 4315<br/>value = [4, 4311]<br/>class = sepsis>, fillcolor="#399de5"] ;
403 -> 404 ;
405 [label=<Hours &le; 5.53<br/>gini = 0.001<br/>samples = 4309<br/>value = [3, 4306]<br/>class = sepsis>, fillcolor="#399de5"] ;
404 -> 405 ;
406 [label=<DBP &le; 4.228<br/>gini = 0.001<br/>samples = 4285<br/>value = [2, 4283]<br/>class = sepsis>, fillcolor="#399de5"] ;
405 -> 406 ;
407 [label=<Temp &le; -2.181<br/>gini = 0.0<br/>samples = 4256<br/>value = [1, 4255]<br/>class = sepsis>, fillcolor="#399de5"] ;
406 -> 407 ;
408 [label=<Temp &le; -2.247<br/>gini = 0.017<br/>samples = 120<br/>value = [1, 119]<br/>class = sepsis>, fillcolor="#3b9ee5"] ;
407 -> 408 ;
409 [label=<gini = 0.0<br/>samples = 119<br/>value = [0, 119]<br/>class = sepsis>, fillcolor="#399de5"] ;
408 -> 409 ;
410 [label=<gini = 0.0<br/>samples = 1<br/>value = [1, 0]<br/>class = no_sepsis>, fillcolor="#e58139"] ;
408 -> 410 ;
411 [label=<gini = 0.0<br/>samples = 4136<br/>value = [0, 4136]<br/>class = sepsis>, fillcolor="#399de5"] ;
407 -> 411 ;
412 [label=<DBP &le; 4.283<br/>gini = 0.067<br/>samples = 29<br/>value = [1, 28]<br/>class = sepsis>, fillcolor="#40a0e6"] ;
406 -> 412 ;
413 [label=<gini = 0.0<br/>samples = 1<br/>value = [1, 0]<br/>class = no_sepsis>, fillcolor="#e58139"] ;
412 -> 413 ;
414 [label=<gini = 0.0<br/>samples = 28<br/>value = [0, 28]<br/>class = sepsis>, fillcolor="#399de5"] ;
412 -> 414 ;
415 [label=<Hours &le; 5.554<br/>gini = 0.08<br/>samples = 24<br/>value = [1, 23]<br/>class = sepsis>, fillcolor="#42a1e6"] ;
405 -> 415 ;
416 [label=<gini = 0.0<br/>samples = 1<br/>value = [1, 0]<br/>class = no_sepsis>, fillcolor="#e58139"] ;
415 -> 416 ;
417 [label=<gini = 0.0<br/>samples = 23<br/>value = [0, 23]<br/>class = sepsis>, fillcolor="#399de5"] ;
415 -> 417 ;
418 [label=<HospAdmTime &le; 0.305<br/>gini = 0.278<br/>samples = 6<br/>value = [1, 5]<br/>class = sepsis>, fillcolor="#61b1ea"] ;
404 -> 418 ;
419 [label=<gini = 0.0<br/>samples = 1<br/>value = [1, 0]<br/>class = no_sepsis>, fillcolor="#e58139"] ;
418 -> 419 ;
420 [label=<gini = 0.0<br/>samples = 5<br/>value = [0, 5]<br/>class = sepsis>, fillcolor="#399de5"] ;
418 -> 420 ;
421 [label=<BaseExcess &le; 0.341<br/>gini = 0.049<br/>samples = 278<br/>value = [7, 271]<br/>class = sepsis>, fillcolor="#3ea0e6"] ;
403 -> 421 ;
422 [label=<pH &le; -0.446<br/>gini = 0.219<br/>samples = 8<br/>value = [7, 1]<br/>class = no_sepsis>, fillcolor="#e99355"] ;
421 -> 422 ;
423 [label=<gini = 0.0<br/>samples = 1<br/>value = [0, 1]<br/>class = sepsis>, fillcolor="#399de5"] ;
422 -> 423 ;
424 [label=<gini = 0.0<br/>samples = 7<br/>value = [7, 0]<br/>class = no_sepsis>, fillcolor="#e58139"] ;
422 -> 424 ;
425 [label=<gini = 0.0<br/>samples = 270<br/>value = [0, 270]<br/>class = sepsis>, fillcolor="#399de5"] ;
421 -> 425 ;
426 [label=<SBP &le; -0.078<br/>gini = 0.375<br/>samples = 4<br/>value = [1, 3]<br/>class = sepsis>, fillcolor="#7bbeee"] ;
398 -> 426 ;
427 [label=<gini = 0.0<br/>samples = 1<br/>value = [1, 0]<br/>class = no_sepsis>, fillcolor="#e58139"] ;
426 -> 427 ;
428 [label=<gini = 0.0<br/>samples = 3<br/>value = [0, 3]<br/>class = sepsis>, fillcolor="#399de5"] ;
426 -> 428 ;
429 [label=<BaseExcess &le; 4.736<br/>gini = 0.5<br/>samples = 2<br/>value = [1, 1]<br/>class = no_sepsis>, fillcolor="#ffffff"] ;
397 -> 429 ;
430 [label=<gini = 0.0<br/>samples = 1<br/>value = [0, 1]<br/>class = sepsis>, fillcolor="#399de5"] ;
429 -> 430 ;
431 [label=<gini = 0.0<br/>samples = 1<br/>value = [1, 0]<br/>class = no_sepsis>, fillcolor="#e58139"] ;
429 -> 431 ;
432 [label=<gini = 0.0<br/>samples = 1<br/>value = [1, 0]<br/>class = no_sepsis>, fillcolor="#e58139"] ;
392 -> 432 ;
433 [label=<gini = 0.0<br/>samples = 1<br/>value = [1, 0]<br/>class = no_sepsis>, fillcolor="#e58139"] ;
391 -> 433 ;
434 [label=<gini = 0.0<br/>samples = 1<br/>value = [1, 0]<br/>class = no_sepsis>, fillcolor="#e58139"] ;
390 -> 434 ;
435 [label=<HospAdmTime &le; -0.05<br/>gini = 0.444<br/>samples = 3<br/>value = [2, 1]<br/>class = no_sepsis>, fillcolor="#f2c09c"] ;
375 -> 435 ;
436 [label=<gini = 0.0<br/>samples = 1<br/>value = [0, 1]<br/>class = sepsis>, fillcolor="#399de5"] ;
435 -> 436 ;
437 [label=<gini = 0.0<br/>samples = 2<br/>value = [2, 0]<br/>class = no_sepsis>, fillcolor="#e58139"] ;
435 -> 437 ;
438 [label=<gini = 0.0<br/>samples = 2<br/>value = [2, 0]<br/>class = no_sepsis>, fillcolor="#e58139"] ;
374 -> 438 ;
439 [label=<Potassium &le; 0.145<br/>gini = 0.37<br/>samples = 53<br/>value = [13, 40]<br/>class = sepsis>, fillcolor="#79bded"] ;
367 -> 439 ;
440 [label=<gini = 0.0<br/>samples = 5<br/>value = [5, 0]<br/>class = no_sepsis>, fillcolor="#e58139"] ;
439 -> 440 ;
441 [label=<Bilirubin_direct &le; -2.331<br/>gini = 0.278<br/>samples = 48<br/>value = [8, 40]<br/>class = sepsis>, fillcolor="#61b1ea"] ;
439 -> 441 ;
442 [label=<gini = 0.0<br/>samples = 2<br/>value = [2, 0]<br/>class = no_sepsis>, fillcolor="#e58139"] ;
441 -> 442 ;
443 [label=<Chloride &le; -6.962<br/>gini = 0.227<br/>samples = 46<br/>value = [6, 40]<br/>class = sepsis>, fillcolor="#57ace9"] ;
441 -> 443 ;
444 [label=<gini = 0.0<br/>samples = 2<br/>value = [2, 0]<br/>class = no_sepsis>, fillcolor="#e58139"] ;
443 -> 444 ;
445 [label=<Bilirubin_total &le; -3.058<br/>gini = 0.165<br/>samples = 44<br/>value = [4, 40]<br/>class = sepsis>, fillcolor="#4da7e8"] ;
443 -> 445 ;
446 [label=<gini = 0.0<br/>samples = 1<br/>value = [1, 0]<br/>class = no_sepsis>, fillcolor="#e58139"] ;
445 -> 446 ;
447 [label=<MAP &le; 8.264<br/>gini = 0.13<br/>samples = 43<br/>value = [3, 40]<br/>class = sepsis>, fillcolor="#48a4e7"] ;
445 -> 447 ;
448 [label=<PaCO2 &le; 8.136<br/>gini = 0.091<br/>samples = 42<br/>value = [2, 40]<br/>class = sepsis>, fillcolor="#43a2e6"] ;
447 -> 448 ;
449 [label=<HCO3 &le; -9.078<br/>gini = 0.048<br/>samples = 41<br/>value = [1, 40]<br/>class = sepsis>, fillcolor="#3e9fe6"] ;
448 -> 449 ;
450 [label=<gini = 0.0<br/>samples = 1<br/>value = [1, 0]<br/>class = no_sepsis>, fillcolor="#e58139"] ;
449 -> 450 ;
451 [label=<gini = 0.0<br/>samples = 40<br/>value = [0, 40]<br/>class = sepsis>, fillcolor="#399de5"] ;
449 -> 451 ;
452 [label=<gini = 0.0<br/>samples = 1<br/>value = [1, 0]<br/>class = no_sepsis>, fillcolor="#e58139"] ;
448 -> 452 ;
453 [label=<gini = 0.0<br/>samples = 1<br/>value = [1, 0]<br/>class = no_sepsis>, fillcolor="#e58139"] ;
447 -> 453 ;
454 [label=<Hours &le; -0.594<br/>gini = 0.492<br/>samples = 241<br/>value = [136, 105]<br/>class = no_sepsis>, fillcolor="#f9e2d2"] ;
272 -> 454 ;
455 [label=<BaseExcess &le; -12.008<br/>gini = 0.12<br/>samples = 47<br/>value = [3, 44]<br/>class = sepsis>, fillcolor="#46a4e7"] ;
454 -> 455 ;
456 [label=<gini = 0.0<br/>samples = 2<br/>value = [2, 0]<br/>class = no_sepsis>, fillcolor="#e58139"] ;
455 -> 456 ;
457 [label=<MAP &le; -1.695<br/>gini = 0.043<br/>samples = 45<br/>value = [1, 44]<br/>class = sepsis>, fillcolor="#3d9fe6"] ;
455 -> 457 ;
458 [label=<gini = 0.0<br/>samples = 1<br/>value = [1, 0]<br/>class = no_sepsis>, fillcolor="#e58139"] ;
457 -> 458 ;
459 [label=<gini = 0.0<br/>samples = 44<br/>value = [0, 44]<br/>class = sepsis>, fillcolor="#399de5"] ;
457 -> 459 ;
460 [label=<ICULOS &le; 0.06<br/>gini = 0.431<br/>samples = 194<br/>value = [133, 61]<br/>class = no_sepsis>, fillcolor="#f1bb94"] ;
454 -> 460 ;
461 [label=<Age &le; 1.309<br/>gini = 0.054<br/>samples = 109<br/>value = [106, 3]<br/>class = no_sepsis>, fillcolor="#e6853f"] ;
460 -> 461 ;
462 [label=<gini = 0.0<br/>samples = 106<br/>value = [106, 0]<br/>class = no_sepsis>, fillcolor="#e58139"] ;
461 -> 462 ;
463 [label=<gini = 0.0<br/>samples = 3<br/>value = [0, 3]<br/>class = sepsis>, fillcolor="#399de5"] ;
461 -> 463 ;
464 [label=<Glucose &le; 0.108<br/>gini = 0.433<br/>samples = 85<br/>value = [27, 58]<br/>class = sepsis>, fillcolor="#95cbf1"] ;
460 -> 464 ;
465 [label=<gini = 0.0<br/>samples = 13<br/>value = [13, 0]<br/>class = no_sepsis>, fillcolor="#e58139"] ;
464 -> 465 ;
466 [label=<HCO3 &le; -4.476<br/>gini = 0.313<br/>samples = 72<br/>value = [14, 58]<br/>class = sepsis>, fillcolor="#69b5eb"] ;
464 -> 466 ;
467 [label=<Potassium &le; -3.367<br/>gini = 0.298<br/>samples = 11<br/>value = [9, 2]<br/>class = no_sepsis>, fillcolor="#eb9d65"] ;
466 -> 467 ;
468 [label=<gini = 0.0<br/>samples = 2<br/>value = [0, 2]<br/>class = sepsis>, fillcolor="#399de5"] ;
467 -> 468 ;
469 [label=<gini = 0.0<br/>samples = 9<br/>value = [9, 0]<br/>class = no_sepsis>, fillcolor="#e58139"] ;
467 -> 469 ;
470 [label=<Phosphate &le; 5.963<br/>gini = 0.15<br/>samples = 61<br/>value = [5, 56]<br/>class = sepsis>, fillcolor="#4ba6e7"] ;
466 -> 470 ;
471 [label=<HospAdmTime &le; -1.258<br/>gini = 0.097<br/>samples = 59<br/>value = [3, 56]<br/>class = sepsis>, fillcolor="#44a2e6"] ;
470 -> 471 ;
472 [label=<Glucose &le; 1.192<br/>gini = 0.469<br/>samples = 8<br/>value = [3, 5]<br/>class = sepsis>, fillcolor="#b0d8f5"] ;
471 -> 472 ;
473 [label=<BUN &le; -0.555<br/>gini = 0.375<br/>samples = 4<br/>value = [3, 1]<br/>class = no_sepsis>, fillcolor="#eeab7b"] ;
472 -> 473 ;
474 [label=<gini = 0.0<br/>samples = 1<br/>value = [0, 1]<br/>class = sepsis>, fillcolor="#399de5"] ;
473 -> 474 ;
475 [label=<gini = 0.0<br/>samples = 3<br/>value = [3, 0]<br/>class = no_sepsis>, fillcolor="#e58139"] ;
473 -> 475 ;
476 [label=<gini = 0.0<br/>samples = 4<br/>value = [0, 4]<br/>class = sepsis>, fillcolor="#399de5"] ;
472 -> 476 ;
477 [label=<gini = 0.0<br/>samples = 51<br/>value = [0, 51]<br/>class = sepsis>, fillcolor="#399de5"] ;
471 -> 477 ;
478 [label=<gini = 0.0<br/>samples = 2<br/>value = [2, 0]<br/>class = no_sepsis>, fillcolor="#e58139"] ;
470 -> 478 ;
479 [label=<Hours &le; -0.549<br/>gini = 0.376<br/>samples = 792<br/>value = [593, 199]<br/>class = no_sepsis>, fillcolor="#eeab7b"] ;
271 -> 479 ;
480 [label=<BUN &le; 0.159<br/>gini = 0.411<br/>samples = 142<br/>value = [41, 101]<br/>class = sepsis>, fillcolor="#89c5f0"] ;
479 -> 480 ;
481 [label=<pH &le; -7.038<br/>gini = 0.271<br/>samples = 105<br/>value = [17, 88]<br/>class = sepsis>, fillcolor="#5fb0ea"] ;
480 -> 481 ;
482 [label=<Resp &le; 0.072<br/>gini = 0.444<br/>samples = 12<br/>value = [8, 4]<br/>class = no_sepsis>, fillcolor="#f2c09c"] ;
481 -> 482 ;
483 [label=<SaO2 &le; 0.42<br/>gini = 0.444<br/>samples = 6<br/>value = [2, 4]<br/>class = sepsis>, fillcolor="#9ccef2"] ;
482 -> 483 ;
484 [label=<gini = 0.0<br/>samples = 4<br/>value = [0, 4]<br/>class = sepsis>, fillcolor="#399de5"] ;
483 -> 484 ;
485 [label=<gini = 0.0<br/>samples = 2<br/>value = [2, 0]<br/>class = no_sepsis>, fillcolor="#e58139"] ;
483 -> 485 ;
486 [label=<gini = 0.0<br/>samples = 6<br/>value = [6, 0]<br/>class = no_sepsis>, fillcolor="#e58139"] ;
482 -> 486 ;
487 [label=<DBP &le; 1.594<br/>gini = 0.175<br/>samples = 93<br/>value = [9, 84]<br/>class = sepsis>, fillcolor="#4ea8e8"] ;
481 -> 487 ;
488 [label=<HCO3 &le; -6.877<br/>gini = 0.092<br/>samples = 83<br/>value = [4, 79]<br/>class = sepsis>, fillcolor="#43a2e6"] ;
487 -> 488 ;
489 [label=<Hours &le; -0.922<br/>gini = 0.444<br/>samples = 3<br/>value = [2, 1]<br/>class = no_sepsis>, fillcolor="#f2c09c"] ;
488 -> 489 ;
490 [label=<gini = 0.0<br/>samples = 1<br/>value = [0, 1]<br/>class = sepsis>, fillcolor="#399de5"] ;
489 -> 490 ;
491 [label=<gini = 0.0<br/>samples = 2<br/>value = [2, 0]<br/>class = no_sepsis>, fillcolor="#e58139"] ;
489 -> 491 ;
492 [label=<Glucose &le; 24.071<br/>gini = 0.049<br/>samples = 80<br/>value = [2, 78]<br/>class = sepsis>, fillcolor="#3ea0e6"] ;
488 -> 492 ;
493 [label=<Fibrinogen &le; -2.33<br/>gini = 0.025<br/>samples = 79<br/>value = [1, 78]<br/>class = sepsis>, fillcolor="#3c9ee5"] ;
492 -> 493 ;
494 [label=<gini = 0.0<br/>samples = 1<br/>value = [1, 0]<br/>class = no_sepsis>, fillcolor="#e58139"] ;
493 -> 494 ;
495 [label=<gini = 0.0<br/>samples = 78<br/>value = [0, 78]<br/>class = sepsis>, fillcolor="#399de5"] ;
493 -> 495 ;
496 [label=<gini = 0.0<br/>samples = 1<br/>value = [1, 0]<br/>class = no_sepsis>, fillcolor="#e58139"] ;
492 -> 496 ;
497 [label=<DBP &le; 2.529<br/>gini = 0.5<br/>samples = 10<br/>value = [5, 5]<br/>class = no_sepsis>, fillcolor="#ffffff"] ;
487 -> 497 ;
498 [label=<O2Sat &le; -1.217<br/>gini = 0.278<br/>samples = 6<br/>value = [5, 1]<br/>class = no_sepsis>, fillcolor="#ea9a61"] ;
497 -> 498 ;
499 [label=<gini = 0.0<br/>samples = 1<br/>value = [0, 1]<br/>class = sepsis>, fillcolor="#399de5"] ;
498 -> 499 ;
500 [label=<gini = 0.0<br/>samples = 5<br/>value = [5, 0]<br/>class = no_sepsis>, fillcolor="#e58139"] ;
498 -> 500 ;
501 [label=<gini = 0.0<br/>samples = 4<br/>value = [0, 4]<br/>class = sepsis>, fillcolor="#399de5"] ;
497 -> 501 ;
502 [label=<Hours &le; -1.007<br/>gini = 0.456<br/>samples = 37<br/>value = [24, 13]<br/>class = no_sepsis>, fillcolor="#f3c5a4"] ;
480 -> 502 ;
503 [label=<gini = 0.0<br/>samples = 6<br/>value = [0, 6]<br/>class = sepsis>, fillcolor="#399de5"] ;
502 -> 503 ;
504 [label=<ICULOS &le; -0.487<br/>gini = 0.35<br/>samples = 31<br/>value = [24, 7]<br/>class = no_sepsis>, fillcolor="#eda673"] ;
502 -> 504 ;
505 [label=<ICULOS &le; -0.878<br/>gini = 0.091<br/>samples = 21<br/>value = [20, 1]<br/>class = no_sepsis>, fillcolor="#e68743"] ;
504 -> 505 ;
506 [label=<Magnesium &le; -1.323<br/>gini = 0.5<br/>samples = 2<br/>value = [1, 1]<br/>class = no_sepsis>, fillcolor="#ffffff"] ;
505 -> 506 ;
507 [label=<gini = 0.0<br/>samples = 1<br/>value = [0, 1]<br/>class = sepsis>, fillcolor="#399de5"] ;
506 -> 507 ;
508 [label=<gini = 0.0<br/>samples = 1<br/>value = [1, 0]<br/>class = no_sepsis>, fillcolor="#e58139"] ;
506 -> 508 ;
509 [label=<gini = 0.0<br/>samples = 19<br/>value = [19, 0]<br/>class = no_sepsis>, fillcolor="#e58139"] ;
505 -> 509 ;
510 [label=<pH &le; -0.004<br/>gini = 0.48<br/>samples = 10<br/>value = [4, 6]<br/>class = sepsis>, fillcolor="#bddef6"] ;
504 -> 510 ;
511 [label=<FiO2 &le; -0.909<br/>gini = 0.32<br/>samples = 5<br/>value = [4, 1]<br/>class = no_sepsis>, fillcolor="#eca06a"] ;
510 -> 511 ;
512 [label=<gini = 0.0<br/>samples = 1<br/>value = [0, 1]<br/>class = sepsis>, fillcolor="#399de5"] ;
511 -> 512 ;
513 [label=<gini = 0.0<br/>samples = 4<br/>value = [4, 0]<br/>class = no_sepsis>, fillcolor="#e58139"] ;
511 -> 513 ;
514 [label=<gini = 0.0<br/>samples = 5<br/>value = [0, 5]<br/>class = sepsis>, fillcolor="#399de5"] ;
510 -> 514 ;
515 [label=<ICULOS &le; 0.307<br/>gini = 0.256<br/>samples = 650<br/>value = [552, 98]<br/>class = no_sepsis>, fillcolor="#ea975c"] ;
479 -> 515 ;
516 [label=<Hours &le; -0.43<br/>gini = 0.049<br/>samples = 481<br/>value = [469, 12]<br/>class = no_sepsis>, fillcolor="#e6843e"] ;
515 -> 516 ;
517 [label=<ICULOS &le; -0.26<br/>gini = 0.466<br/>samples = 27<br/>value = [17, 10]<br/>class = no_sepsis>, fillcolor="#f4cbad"] ;
516 -> 517 ;
518 [label=<gini = 0.0<br/>samples = 16<br/>value = [16, 0]<br/>class = no_sepsis>, fillcolor="#e58139"] ;
517 -> 518 ;
519 [label=<Chloride &le; 3.344<br/>gini = 0.165<br/>samples = 11<br/>value = [1, 10]<br/>class = sepsis>, fillcolor="#4da7e8"] ;
517 -> 519 ;
520 [label=<gini = 0.0<br/>samples = 10<br/>value = [0, 10]<br/>class = sepsis>, fillcolor="#399de5"] ;
519 -> 520 ;
521 [label=<gini = 0.0<br/>samples = 1<br/>value = [1, 0]<br/>class = no_sepsis>, fillcolor="#e58139"] ;
519 -> 521 ;
522 [label=<MAP &le; -1.835<br/>gini = 0.009<br/>samples = 454<br/>value = [452, 2]<br/>class = no_sepsis>, fillcolor="#e5823a"] ;
516 -> 522 ;
523 [label=<DBP &le; -2.338<br/>gini = 0.5<br/>samples = 2<br/>value = [1, 1]<br/>class = no_sepsis>, fillcolor="#ffffff"] ;
522 -> 523 ;
524 [label=<gini = 0.0<br/>samples = 1<br/>value = [0, 1]<br/>class = sepsis>, fillcolor="#399de5"] ;
523 -> 524 ;
525 [label=<gini = 0.0<br/>samples = 1<br/>value = [1, 0]<br/>class = no_sepsis>, fillcolor="#e58139"] ;
523 -> 525 ;
526 [label=<Hours &le; -0.407<br/>gini = 0.004<br/>samples = 452<br/>value = [451, 1]<br/>class = no_sepsis>, fillcolor="#e58139"] ;
522 -> 526 ;
527 [label=<Hgb &le; -0.28<br/>gini = 0.165<br/>samples = 11<br/>value = [10, 1]<br/>class = no_sepsis>, fillcolor="#e88e4d"] ;
526 -> 527 ;
528 [label=<gini = 0.0<br/>samples = 1<br/>value = [0, 1]<br/>class = sepsis>, fillcolor="#399de5"] ;
527 -> 528 ;
529 [label=<gini = 0.0<br/>samples = 10<br/>value = [10, 0]<br/>class = no_sepsis>, fillcolor="#e58139"] ;
527 -> 529 ;
530 [label=<gini = 0.0<br/>samples = 441<br/>value = [441, 0]<br/>class = no_sepsis>, fillcolor="#e58139"] ;
526 -> 530 ;
531 [label=<Hct &le; 0.265<br/>gini = 0.5<br/>samples = 169<br/>value = [83, 86]<br/>class = sepsis>, fillcolor="#f8fcfe"] ;
515 -> 531 ;
532 [label=<HospAdmTime &le; 0.337<br/>gini = 0.165<br/>samples = 55<br/>value = [50, 5]<br/>class = no_sepsis>, fillcolor="#e88e4d"] ;
531 -> 532 ;
533 [label=<Hgb &le; -1.068<br/>gini = 0.075<br/>samples = 51<br/>value = [49, 2]<br/>class = no_sepsis>, fillcolor="#e68641"] ;
532 -> 533 ;
534 [label=<gini = 0.0<br/>samples = 2<br/>value = [0, 2]<br/>class = sepsis>, fillcolor="#399de5"] ;
533 -> 534 ;
535 [label=<gini = 0.0<br/>samples = 49<br/>value = [49, 0]<br/>class = no_sepsis>, fillcolor="#e58139"] ;
533 -> 535 ;
536 [label=<O2Sat &le; -0.237<br/>gini = 0.375<br/>samples = 4<br/>value = [1, 3]<br/>class = sepsis>, fillcolor="#7bbeee"] ;
532 -> 536 ;
537 [label=<gini = 0.0<br/>samples = 1<br/>value = [1, 0]<br/>class = no_sepsis>, fillcolor="#e58139"] ;
536 -> 537 ;
538 [label=<gini = 0.0<br/>samples = 3<br/>value = [0, 3]<br/>class = sepsis>, fillcolor="#399de5"] ;
536 -> 538 ;
539 [label=<Magnesium &le; 2.899<br/>gini = 0.411<br/>samples = 114<br/>value = [33, 81]<br/>class = sepsis>, fillcolor="#8ac5f0"] ;
531 -> 539 ;
540 [label=<Glucose &le; 2.057<br/>gini = 0.325<br/>samples = 93<br/>value = [19, 74]<br/>class = sepsis>, fillcolor="#6cb6ec"] ;
539 -> 540 ;
541 [label=<Calcium &le; -4.969<br/>gini = 0.224<br/>samples = 78<br/>value = [10, 68]<br/>class = sepsis>, fillcolor="#56abe9"] ;
540 -> 541 ;
542 [label=<Hgb &le; 4.913<br/>gini = 0.375<br/>samples = 4<br/>value = [3, 1]<br/>class = no_sepsis>, fillcolor="#eeab7b"] ;
541 -> 542 ;
543 [label=<gini = 0.0<br/>samples = 3<br/>value = [3, 0]<br/>class = no_sepsis>, fillcolor="#e58139"] ;
542 -> 543 ;
544 [label=<gini = 0.0<br/>samples = 1<br/>value = [0, 1]<br/>class = sepsis>, fillcolor="#399de5"] ;
542 -> 544 ;
545 [label=<Magnesium &le; -2.354<br/>gini = 0.171<br/>samples = 74<br/>value = [7, 67]<br/>class = sepsis>, fillcolor="#4ea7e8"] ;
541 -> 545 ;
546 [label=<gini = 0.0<br/>samples = 2<br/>value = [2, 0]<br/>class = no_sepsis>, fillcolor="#e58139"] ;
545 -> 546 ;
547 [label=<PaCO2 &le; -4.697<br/>gini = 0.129<br/>samples = 72<br/>value = [5, 67]<br/>class = sepsis>, fillcolor="#48a4e7"] ;
545 -> 547 ;
548 [label=<gini = 0.0<br/>samples = 2<br/>value = [2, 0]<br/>class = no_sepsis>, fillcolor="#e58139"] ;
547 -> 548 ;
549 [label=<AST &le; 9.846<br/>gini = 0.082<br/>samples = 70<br/>value = [3, 67]<br/>class = sepsis>, fillcolor="#42a1e6"] ;
547 -> 549 ;
550 [label=<BaseExcess &le; 5.686<br/>gini = 0.056<br/>samples = 69<br/>value = [2, 67]<br/>class = sepsis>, fillcolor="#3fa0e6"] ;
549 -> 550 ;
551 [label=<Hours &le; 5.631<br/>gini = 0.029<br/>samples = 68<br/>value = [1, 67]<br/>class = sepsis>, fillcolor="#3c9ee5"] ;
550 -> 551 ;
552 [label=<gini = 0.0<br/>samples = 66<br/>value = [0, 66]<br/>class = sepsis>, fillcolor="#399de5"] ;
551 -> 552 ;
553 [label=<MAP &le; -0.357<br/>gini = 0.5<br/>samples = 2<br/>value = [1, 1]<br/>class = no_sepsis>, fillcolor="#ffffff"] ;
551 -> 553 ;
554 [label=<gini = 0.0<br/>samples = 1<br/>value = [1, 0]<br/>class = no_sepsis>, fillcolor="#e58139"] ;
553 -> 554 ;
555 [label=<gini = 0.0<br/>samples = 1<br/>value = [0, 1]<br/>class = sepsis>, fillcolor="#399de5"] ;
553 -> 555 ;
556 [label=<gini = 0.0<br/>samples = 1<br/>value = [1, 0]<br/>class = no_sepsis>, fillcolor="#e58139"] ;
550 -> 556 ;
557 [label=<gini = 0.0<br/>samples = 1<br/>value = [1, 0]<br/>class = no_sepsis>, fillcolor="#e58139"] ;
549 -> 557 ;
558 [label=<Age &le; -0.137<br/>gini = 0.48<br/>samples = 15<br/>value = [9, 6]<br/>class = no_sepsis>, fillcolor="#f6d5bd"] ;
540 -> 558 ;
559 [label=<gini = 0.0<br/>samples = 7<br/>value = [7, 0]<br/>class = no_sepsis>, fillcolor="#e58139"] ;
558 -> 559 ;
560 [label=<Glucose &le; 2.726<br/>gini = 0.375<br/>samples = 8<br/>value = [2, 6]<br/>class = sepsis>, fillcolor="#7bbeee"] ;
558 -> 560 ;
561 [label=<gini = 0.0<br/>samples = 2<br/>value = [2, 0]<br/>class = no_sepsis>, fillcolor="#e58139"] ;
560 -> 561 ;
562 [label=<gini = 0.0<br/>samples = 6<br/>value = [0, 6]<br/>class = sepsis>, fillcolor="#399de5"] ;
560 -> 562 ;
563 [label=<O2Sat &le; 0.831<br/>gini = 0.444<br/>samples = 21<br/>value = [14, 7]<br/>class = no_sepsis>, fillcolor="#f2c09c"] ;
539 -> 563 ;
564 [label=<Phosphate &le; -1.367<br/>gini = 0.346<br/>samples = 18<br/>value = [14, 4]<br/>class = no_sepsis>, fillcolor="#eca572"] ;
563 -> 564 ;
565 [label=<gini = 0.0<br/>samples = 2<br/>value = [0, 2]<br/>class = sepsis>, fillcolor="#399de5"] ;
564 -> 565 ;
566 [label=<Bilirubin_direct &le; 25.416<br/>gini = 0.219<br/>samples = 16<br/>value = [14, 2]<br/>class = no_sepsis>, fillcolor="#e99355"] ;
564 -> 566 ;
567 [label=<gini = 0.0<br/>samples = 14<br/>value = [14, 0]<br/>class = no_sepsis>, fillcolor="#e58139"] ;
566 -> 567 ;
568 [label=<gini = 0.0<br/>samples = 2<br/>value = [0, 2]<br/>class = sepsis>, fillcolor="#399de5"] ;
566 -> 568 ;
569 [label=<gini = 0.0<br/>samples = 3<br/>value = [0, 3]<br/>class = sepsis>, fillcolor="#399de5"] ;
563 -> 569 ;
570 [label=<Hours &le; -0.714<br/>gini = 0.156<br/>samples = 1384<br/>value = [1266, 118]<br/>class = no_sepsis>, fillcolor="#e78d4b"] ;
164 -> 570 ;
571 [label=<Phosphate &le; 7.054<br/>gini = 0.5<br/>samples = 95<br/>value = [48, 47]<br/>class = no_sepsis>, fillcolor="#fefcfb"] ;
570 -> 571 ;
572 [label=<ICULOS &le; -0.585<br/>gini = 0.459<br/>samples = 70<br/>value = [25, 45]<br/>class = sepsis>, fillcolor="#a7d3f3"] ;
571 -> 572 ;
573 [label=<Hours &le; -0.958<br/>gini = 0.496<br/>samples = 35<br/>value = [19, 16]<br/>class = no_sepsis>, fillcolor="#fbebe0"] ;
572 -> 573 ;
574 [label=<Hgb &le; -4.849<br/>gini = 0.208<br/>samples = 17<br/>value = [2, 15]<br/>class = sepsis>, fillcolor="#53aae8"] ;
573 -> 574 ;
575 [label=<gini = 0.0<br/>samples = 2<br/>value = [2, 0]<br/>class = no_sepsis>, fillcolor="#e58139"] ;
574 -> 575 ;
576 [label=<gini = 0.0<br/>samples = 15<br/>value = [0, 15]<br/>class = sepsis>, fillcolor="#399de5"] ;
574 -> 576 ;
577 [label=<HospAdmTime &le; -3.54<br/>gini = 0.105<br/>samples = 18<br/>value = [17, 1]<br/>class = no_sepsis>, fillcolor="#e78845"] ;
573 -> 577 ;
578 [label=<gini = 0.0<br/>samples = 1<br/>value = [0, 1]<br/>class = sepsis>, fillcolor="#399de5"] ;
577 -> 578 ;
579 [label=<gini = 0.0<br/>samples = 17<br/>value = [17, 0]<br/>class = no_sepsis>, fillcolor="#e58139"] ;
577 -> 579 ;
580 [label=<BaseExcess &le; -7.377<br/>gini = 0.284<br/>samples = 35<br/>value = [6, 29]<br/>class = sepsis>, fillcolor="#62b1ea"] ;
572 -> 580 ;
581 [label=<HospAdmTime &le; -0.964<br/>gini = 0.375<br/>samples = 4<br/>value = [3, 1]<br/>class = no_sepsis>, fillcolor="#eeab7b"] ;
580 -> 581 ;
582 [label=<gini = 0.0<br/>samples = 1<br/>value = [0, 1]<br/>class = sepsis>, fillcolor="#399de5"] ;
581 -> 582 ;
583 [label=<gini = 0.0<br/>samples = 3<br/>value = [3, 0]<br/>class = no_sepsis>, fillcolor="#e58139"] ;
581 -> 583 ;
584 [label=<Glucose &le; 15.003<br/>gini = 0.175<br/>samples = 31<br/>value = [3, 28]<br/>class = sepsis>, fillcolor="#4ea8e8"] ;
580 -> 584 ;
585 [label=<Bilirubin_direct &le; 5.404<br/>gini = 0.124<br/>samples = 30<br/>value = [2, 28]<br/>class = sepsis>, fillcolor="#47a4e7"] ;
584 -> 585 ;
586 [label=<Magnesium &le; -5.546<br/>gini = 0.067<br/>samples = 29<br/>value = [1, 28]<br/>class = sepsis>, fillcolor="#40a0e6"] ;
585 -> 586 ;
587 [label=<gini = 0.0<br/>samples = 1<br/>value = [1, 0]<br/>class = no_sepsis>, fillcolor="#e58139"] ;
586 -> 587 ;
588 [label=<gini = 0.0<br/>samples = 28<br/>value = [0, 28]<br/>class = sepsis>, fillcolor="#399de5"] ;
586 -> 588 ;
589 [label=<gini = 0.0<br/>samples = 1<br/>value = [1, 0]<br/>class = no_sepsis>, fillcolor="#e58139"] ;
585 -> 589 ;
590 [label=<gini = 0.0<br/>samples = 1<br/>value = [1, 0]<br/>class = no_sepsis>, fillcolor="#e58139"] ;
584 -> 590 ;
591 [label=<HospAdmTime &le; 0.338<br/>gini = 0.147<br/>samples = 25<br/>value = [23, 2]<br/>class = no_sepsis>, fillcolor="#e78c4a"] ;
571 -> 591 ;
592 [label=<WBC &le; -4.385<br/>gini = 0.08<br/>samples = 24<br/>value = [23, 1]<br/>class = no_sepsis>, fillcolor="#e68642"] ;
591 -> 592 ;
593 [label=<SBP &le; -0.705<br/>gini = 0.5<br/>samples = 2<br/>value = [1, 1]<br/>class = no_sepsis>, fillcolor="#ffffff"] ;
592 -> 593 ;
594 [label=<gini = 0.0<br/>samples = 1<br/>value = [1, 0]<br/>class = no_sepsis>, fillcolor="#e58139"] ;
593 -> 594 ;
595 [label=<gini = 0.0<br/>samples = 1<br/>value = [0, 1]<br/>class = sepsis>, fillcolor="#399de5"] ;
593 -> 595 ;
596 [label=<gini = 0.0<br/>samples = 22<br/>value = [22, 0]<br/>class = no_sepsis>, fillcolor="#e58139"] ;
592 -> 596 ;
597 [label=<gini = 0.0<br/>samples = 1<br/>value = [0, 1]<br/>class = sepsis>, fillcolor="#399de5"] ;
591 -> 597 ;
598 [label=<ICULOS &le; 0.237<br/>gini = 0.104<br/>samples = 1289<br/>value = [1218, 71]<br/>class = no_sepsis>, fillcolor="#e78845"] ;
570 -> 598 ;
599 [label=<Hours &le; -0.503<br/>gini = 0.026<br/>samples = 1043<br/>value = [1029, 14]<br/>class = no_sepsis>, fillcolor="#e5833c"] ;
598 -> 599 ;
600 [label=<ICULOS &le; -0.158<br/>gini = 0.259<br/>samples = 72<br/>value = [61, 11]<br/>class = no_sepsis>, fillcolor="#ea985d"] ;
599 -> 600 ;
601 [label=<Age &le; -2.37<br/>gini = 0.092<br/>samples = 62<br/>value = [59, 3]<br/>class = no_sepsis>, fillcolor="#e68743"] ;
600 -> 601 ;
602 [label=<gini = 0.0<br/>samples = 2<br/>value = [0, 2]<br/>class = sepsis>, fillcolor="#399de5"] ;
601 -> 602 ;
603 [label=<Age &le; 1.518<br/>gini = 0.033<br/>samples = 60<br/>value = [59, 1]<br/>class = no_sepsis>, fillcolor="#e5833c"] ;
601 -> 603 ;
604 [label=<gini = 0.0<br/>samples = 57<br/>value = [57, 0]<br/>class = no_sepsis>, fillcolor="#e58139"] ;
603 -> 604 ;
605 [label=<DBP &le; -0.194<br/>gini = 0.444<br/>samples = 3<br/>value = [2, 1]<br/>class = no_sepsis>, fillcolor="#f2c09c"] ;
603 -> 605 ;
606 [label=<gini = 0.0<br/>samples = 2<br/>value = [2, 0]<br/>class = no_sepsis>, fillcolor="#e58139"] ;
605 -> 606 ;
607 [label=<gini = 0.0<br/>samples = 1<br/>value = [0, 1]<br/>class = sepsis>, fillcolor="#399de5"] ;
605 -> 607 ;
608 [label=<Glucose &le; 3.061<br/>gini = 0.32<br/>samples = 10<br/>value = [2, 8]<br/>class = sepsis>, fillcolor="#6ab6ec"] ;
600 -> 608 ;
609 [label=<gini = 0.0<br/>samples = 8<br/>value = [0, 8]<br/>class = sepsis>, fillcolor="#399de5"] ;
608 -> 609 ;
610 [label=<gini = 0.0<br/>samples = 2<br/>value = [2, 0]<br/>class = no_sepsis>, fillcolor="#e58139"] ;
608 -> 610 ;
611 [label=<WBC &le; -4.791<br/>gini = 0.006<br/>samples = 971<br/>value = [968, 3]<br/>class = no_sepsis>, fillcolor="#e5813a"] ;
599 -> 611 ;
612 [label=<PTT &le; 11.882<br/>gini = 0.219<br/>samples = 8<br/>value = [7, 1]<br/>class = no_sepsis>, fillcolor="#e99355"] ;
611 -> 612 ;
613 [label=<gini = 0.0<br/>samples = 7<br/>value = [7, 0]<br/>class = no_sepsis>, fillcolor="#e58139"] ;
612 -> 613 ;
614 [label=<gini = 0.0<br/>samples = 1<br/>value = [0, 1]<br/>class = sepsis>, fillcolor="#399de5"] ;
612 -> 614 ;
615 [label=<AST &le; -2.777<br/>gini = 0.004<br/>samples = 963<br/>value = [961, 2]<br/>class = no_sepsis>, fillcolor="#e58139"] ;
611 -> 615 ;
616 [label=<Bilirubin_total &le; -2.887<br/>gini = 0.219<br/>samples = 8<br/>value = [7, 1]<br/>class = no_sepsis>, fillcolor="#e99355"] ;
615 -> 616 ;
617 [label=<gini = 0.0<br/>samples = 7<br/>value = [7, 0]<br/>class = no_sepsis>, fillcolor="#e58139"] ;
616 -> 617 ;
618 [label=<gini = 0.0<br/>samples = 1<br/>value = [0, 1]<br/>class = sepsis>, fillcolor="#399de5"] ;
616 -> 618 ;
619 [label=<HospAdmTime &le; 0.338<br/>gini = 0.002<br/>samples = 955<br/>value = [954, 1]<br/>class = no_sepsis>, fillcolor="#e58139"] ;
615 -> 619 ;
620 [label=<gini = 0.0<br/>samples = 935<br/>value = [935, 0]<br/>class = no_sepsis>, fillcolor="#e58139"] ;
619 -> 620 ;
621 [label=<MAP &le; 0.792<br/>gini = 0.095<br/>samples = 20<br/>value = [19, 1]<br/>class = no_sepsis>, fillcolor="#e68843"] ;
619 -> 621 ;
622 [label=<gini = 0.0<br/>samples = 19<br/>value = [19, 0]<br/>class = no_sepsis>, fillcolor="#e58139"] ;
621 -> 622 ;
623 [label=<gini = 0.0<br/>samples = 1<br/>value = [0, 1]<br/>class = sepsis>, fillcolor="#399de5"] ;
621 -> 623 ;
624 [label=<Resp &le; -1.198<br/>gini = 0.356<br/>samples = 246<br/>value = [189, 57]<br/>class = no_sepsis>, fillcolor="#eda775"] ;
598 -> 624 ;
625 [label=<Lactate &le; 23.437<br/>gini = 0.245<br/>samples = 14<br/>value = [2, 12]<br/>class = sepsis>, fillcolor="#5aade9"] ;
624 -> 625 ;
626 [label=<gini = 0.0<br/>samples = 12<br/>value = [0, 12]<br/>class = sepsis>, fillcolor="#399de5"] ;
625 -> 626 ;
627 [label=<gini = 0.0<br/>samples = 2<br/>value = [2, 0]<br/>class = no_sepsis>, fillcolor="#e58139"] ;
625 -> 627 ;
628 [label=<Hours &le; -0.249<br/>gini = 0.313<br/>samples = 232<br/>value = [187, 45]<br/>class = no_sepsis>, fillcolor="#eb9f69"] ;
624 -> 628 ;
629 [label=<Hct &le; 0.163<br/>gini = 0.492<br/>samples = 16<br/>value = [7, 9]<br/>class = sepsis>, fillcolor="#d3e9f9"] ;
628 -> 629 ;
630 [label=<Chloride &le; -1.906<br/>gini = 0.298<br/>samples = 11<br/>value = [2, 9]<br/>class = sepsis>, fillcolor="#65b3eb"] ;
629 -> 630 ;
631 [label=<gini = 0.0<br/>samples = 2<br/>value = [2, 0]<br/>class = no_sepsis>, fillcolor="#e58139"] ;
630 -> 631 ;
632 [label=<gini = 0.0<br/>samples = 9<br/>value = [0, 9]<br/>class = sepsis>, fillcolor="#399de5"] ;
630 -> 632 ;
633 [label=<gini = 0.0<br/>samples = 5<br/>value = [5, 0]<br/>class = no_sepsis>, fillcolor="#e58139"] ;
629 -> 633 ;
634 [label=<HospAdmTime &le; 0.338<br/>gini = 0.278<br/>samples = 216<br/>value = [180, 36]<br/>class = no_sepsis>, fillcolor="#ea9a61"] ;
628 -> 634 ;
635 [label=<ICULOS &le; 0.623<br/>gini = 0.257<br/>samples = 211<br/>value = [179, 32]<br/>class = no_sepsis>, fillcolor="#ea985c"] ;
634 -> 635 ;
636 [label=<SBP &le; 1.309<br/>gini = 0.028<br/>samples = 70<br/>value = [69, 1]<br/>class = no_sepsis>, fillcolor="#e5833c"] ;
635 -> 636 ;
637 [label=<gini = 0.0<br/>samples = 68<br/>value = [68, 0]<br/>class = no_sepsis>, fillcolor="#e58139"] ;
636 -> 637 ;
638 [label=<DBP &le; 2.089<br/>gini = 0.5<br/>samples = 2<br/>value = [1, 1]<br/>class = no_sepsis>, fillcolor="#ffffff"] ;
636 -> 638 ;
639 [label=<gini = 0.0<br/>samples = 1<br/>value = [0, 1]<br/>class = sepsis>, fillcolor="#399de5"] ;
638 -> 639 ;
640 [label=<gini = 0.0<br/>samples = 1<br/>value = [1, 0]<br/>class = no_sepsis>, fillcolor="#e58139"] ;
638 -> 640 ;
641 [label=<Hours &le; 1.329<br/>gini = 0.343<br/>samples = 141<br/>value = [110, 31]<br/>class = no_sepsis>, fillcolor="#eca571"] ;
635 -> 641 ;
642 [label=<ICULOS &le; 1.432<br/>gini = 0.483<br/>samples = 49<br/>value = [29, 20]<br/>class = no_sepsis>, fillcolor="#f7d8c2"] ;
641 -> 642 ;
643 [label=<Unit1 &le; -0.763<br/>gini = 0.36<br/>samples = 34<br/>value = [26, 8]<br/>class = no_sepsis>, fillcolor="#eda876"] ;
642 -> 643 ;
644 [label=<Hgb &le; 0.972<br/>gini = 0.444<br/>samples = 6<br/>value = [2, 4]<br/>class = sepsis>, fillcolor="#9ccef2"] ;
643 -> 644 ;
645 [label=<gini = 0.0<br/>samples = 4<br/>value = [0, 4]<br/>class = sepsis>, fillcolor="#399de5"] ;
644 -> 645 ;
646 [label=<gini = 0.0<br/>samples = 2<br/>value = [2, 0]<br/>class = no_sepsis>, fillcolor="#e58139"] ;
644 -> 646 ;
647 [label=<Temp &le; -1.216<br/>gini = 0.245<br/>samples = 28<br/>value = [24, 4]<br/>class = no_sepsis>, fillcolor="#e9965a"] ;
643 -> 647 ;
648 [label=<Gender &le; -0.154<br/>gini = 0.48<br/>samples = 5<br/>value = [2, 3]<br/>class = sepsis>, fillcolor="#bddef6"] ;
647 -> 648 ;
649 [label=<gini = 0.0<br/>samples = 3<br/>value = [0, 3]<br/>class = sepsis>, fillcolor="#399de5"] ;
648 -> 649 ;
650 [label=<gini = 0.0<br/>samples = 2<br/>value = [2, 0]<br/>class = no_sepsis>, fillcolor="#e58139"] ;
648 -> 650 ;
651 [label=<HR &le; -1.165<br/>gini = 0.083<br/>samples = 23<br/>value = [22, 1]<br/>class = no_sepsis>, fillcolor="#e68742"] ;
647 -> 651 ;
652 [label=<gini = 0.0<br/>samples = 1<br/>value = [0, 1]<br/>class = sepsis>, fillcolor="#399de5"] ;
651 -> 652 ;
653 [label=<gini = 0.0<br/>samples = 22<br/>value = [22, 0]<br/>class = no_sepsis>, fillcolor="#e58139"] ;
651 -> 653 ;
654 [label=<Alkalinephos &le; 1.324<br/>gini = 0.32<br/>samples = 15<br/>value = [3, 12]<br/>class = sepsis>, fillcolor="#6ab6ec"] ;
642 -> 654 ;
655 [label=<gini = 0.0<br/>samples = 12<br/>value = [0, 12]<br/>class = sepsis>, fillcolor="#399de5"] ;
654 -> 655 ;
656 [label=<gini = 0.0<br/>samples = 3<br/>value = [3, 0]<br/>class = no_sepsis>, fillcolor="#e58139"] ;
654 -> 656 ;
657 [label=<WBC &le; 8.369<br/>gini = 0.211<br/>samples = 92<br/>value = [81, 11]<br/>class = no_sepsis>, fillcolor="#e99254"] ;
641 -> 657 ;
658 [label=<FiO2 &le; -1.576<br/>gini = 0.164<br/>samples = 89<br/>value = [81, 8]<br/>class = no_sepsis>, fillcolor="#e88d4d"] ;
657 -> 658 ;
659 [label=<Hgb &le; -1.325<br/>gini = 0.444<br/>samples = 3<br/>value = [1, 2]<br/>class = sepsis>, fillcolor="#9ccef2"] ;
658 -> 659 ;
660 [label=<gini = 0.0<br/>samples = 1<br/>value = [1, 0]<br/>class = no_sepsis>, fillcolor="#e58139"] ;
659 -> 660 ;
661 [label=<gini = 0.0<br/>samples = 2<br/>value = [0, 2]<br/>class = sepsis>, fillcolor="#399de5"] ;
659 -> 661 ;
662 [label=<Age &le; 1.402<br/>gini = 0.13<br/>samples = 86<br/>value = [80, 6]<br/>class = no_sepsis>, fillcolor="#e78a48"] ;
658 -> 662 ;
663 [label=<MAP &le; -2.082<br/>gini = 0.111<br/>samples = 85<br/>value = [80, 5]<br/>class = no_sepsis>, fillcolor="#e78945"] ;
662 -> 663 ;
664 [label=<gini = 0.0<br/>samples = 1<br/>value = [0, 1]<br/>class = sepsis>, fillcolor="#399de5"] ;
663 -> 664 ;
665 [label=<Platelets &le; -5.685<br/>gini = 0.091<br/>samples = 84<br/>value = [80, 4]<br/>class = no_sepsis>, fillcolor="#e68743"] ;
663 -> 665 ;
666 [label=<gini = 0.0<br/>samples = 1<br/>value = [0, 1]<br/>class = sepsis>, fillcolor="#399de5"] ;
665 -> 666 ;
667 [label=<SBP &le; 2.721<br/>gini = 0.07<br/>samples = 83<br/>value = [80, 3]<br/>class = no_sepsis>, fillcolor="#e68640"] ;
665 -> 667 ;
668 [label=<MAP &le; -1.036<br/>gini = 0.048<br/>samples = 82<br/>value = [80, 2]<br/>class = no_sepsis>, fillcolor="#e6843e"] ;
667 -> 668 ;
669 [label=<Gender &le; -0.164<br/>gini = 0.298<br/>samples = 11<br/>value = [9, 2]<br/>class = no_sepsis>, fillcolor="#eb9d65"] ;
668 -> 669 ;
670 [label=<gini = 0.0<br/>samples = 2<br/>value = [0, 2]<br/>class = sepsis>, fillcolor="#399de5"] ;
669 -> 670 ;
671 [label=<gini = 0.0<br/>samples = 9<br/>value = [9, 0]<br/>class = no_sepsis>, fillcolor="#e58139"] ;
669 -> 671 ;
672 [label=<gini = 0.0<br/>samples = 71<br/>value = [71, 0]<br/>class = no_sepsis>, fillcolor="#e58139"] ;
668 -> 672 ;
673 [label=<gini = 0.0<br/>samples = 1<br/>value = [0, 1]<br/>class = sepsis>, fillcolor="#399de5"] ;
667 -> 673 ;
674 [label=<gini = 0.0<br/>samples = 1<br/>value = [0, 1]<br/>class = sepsis>, fillcolor="#399de5"] ;
662 -> 674 ;
675 [label=<gini = 0.0<br/>samples = 3<br/>value = [0, 3]<br/>class = sepsis>, fillcolor="#399de5"] ;
657 -> 675 ;
676 [label=<SaO2 &le; 0.767<br/>gini = 0.32<br/>samples = 5<br/>value = [1, 4]<br/>class = sepsis>, fillcolor="#6ab6ec"] ;
634 -> 676 ;
677 [label=<gini = 0.0<br/>samples = 4<br/>value = [0, 4]<br/>class = sepsis>, fillcolor="#399de5"] ;
676 -> 677 ;
678 [label=<gini = 0.0<br/>samples = 1<br/>value = [1, 0]<br/>class = no_sepsis>, fillcolor="#e58139"] ;
676 -> 678 ;
}
