digraph Tree {
node [shape=box, style="filled, rounded", color="black", fontname="helvetica"] ;
edge [fontname="helvetica"] ;
0 [label=<PTT &le; -0.002<br/>gini = 0.5<br/>samples = 2350<br/>value = [1175, 1175]<br/>class = no_sepsis>, fillcolor="#ffffff"] ;
1 [label=<Hours &le; -0.784<br/>gini = 0.116<br/>samples = 663<br/>value = [622, 41]<br/>class = no_sepsis>, fillcolor="#e78946"] ;
0 -> 1 [labeldistance=2.5, labelangle=45, headlabel="True"] ;
2 [label=<WBC &le; 4.778<br/>gini = 0.269<br/>samples = 25<br/>value = [4, 21]<br/>class = sepsis>, fillcolor="#5fb0ea"] ;
1 -> 2 ;
3 [label=<Chloride &le; -9.1<br/>gini = 0.087<br/>samples = 22<br/>value = [1, 21]<br/>class = sepsis>, fillcolor="#42a2e6"] ;
2 -> 3 ;
4 [label=<gini = 0.0<br/>samples = 1<br/>value = [1, 0]<br/>class = no_sepsis>, fillcolor="#e58139"] ;
3 -> 4 ;
5 [label=<gini = 0.0<br/>samples = 21<br/>value = [0, 21]<br/>class = sepsis>, fillcolor="#399de5"] ;
3 -> 5 ;
6 [label=<gini = 0.0<br/>samples = 3<br/>value = [3, 0]<br/>class = no_sepsis>, fillcolor="#e58139"] ;
2 -> 6 ;
7 [label=<ICULOS &le; 1.67<br/>gini = 0.061<br/>samples = 638<br/>value = [618, 20]<br/>class = no_sepsis>, fillcolor="#e6853f"] ;
1 -> 7 ;
8 [label=<Hours &le; -0.524<br/>gini = 0.033<br/>samples = 601<br/>value = [591, 10]<br/>class = no_sepsis>, fillcolor="#e5833c"] ;
7 -> 8 ;
9 [label=<ICULOS &le; -0.475<br/>gini = 0.408<br/>samples = 21<br/>value = [15, 6]<br/>class = no_sepsis>, fillcolor="#efb388"] ;
8 -> 9 ;
10 [label=<gini = 0.0<br/>samples = 15<br/>value = [15, 0]<br/>class = no_sepsis>, fillcolor="#e58139"] ;
9 -> 10 ;
11 [label=<gini = 0.0<br/>samples = 6<br/>value = [0, 6]<br/>class = sepsis>, fillcolor="#399de5"] ;
9 -> 11 ;
12 [label=<Phosphate &le; -4.691<br/>gini = 0.014<br/>samples = 580<br/>value = [576, 4]<br/>class = no_sepsis>, fillcolor="#e5823a"] ;
8 -> 12 ;
13 [label=<Chloride &le; -0.973<br/>gini = 0.291<br/>samples = 17<br/>value = [14, 3]<br/>class = no_sepsis>, fillcolor="#eb9c63"] ;
12 -> 13 ;
14 [label=<gini = 0.0<br/>samples = 2<br/>value = [0, 2]<br/>class = sepsis>, fillcolor="#399de5"] ;
13 -> 14 ;
15 [label=<O2Sat &le; 0.901<br/>gini = 0.124<br/>samples = 15<br/>value = [14, 1]<br/>class = no_sepsis>, fillcolor="#e78a47"] ;
13 -> 15 ;
16 [label=<gini = 0.0<br/>samples = 13<br/>value = [13, 0]<br/>class = no_sepsis>, fillcolor="#e58139"] ;
15 -> 16 ;
17 [label=<HCO3 &le; -3.955<br/>gini = 0.5<br/>samples = 2<br/>value = [1, 1]<br/>class = no_sepsis>, fillcolor="#ffffff"] ;
15 -> 17 ;
18 [label=<gini = 0.0<br/>samples = 1<br/>value = [1, 0]<br/>class = no_sepsis>, fillcolor="#e58139"] ;
17 -> 18 ;
19 [label=<gini = 0.0<br/>samples = 1<br/>value = [0, 1]<br/>class = sepsis>, fillcolor="#399de5"] ;
17 -> 19 ;
20 [label=<O2Sat &le; -2.468<br/>gini = 0.004<br/>samples = 563<br/>value = [562, 1]<br/>class = no_sepsis>, fillcolor="#e58139"] ;
12 -> 20 ;
21 [label=<HospAdmTime &le; 0.281<br/>gini = 0.5<br/>samples = 2<br/>value = [1, 1]<br/>class = no_sepsis>, fillcolor="#ffffff"] ;
20 -> 21 ;
22 [label=<gini = 0.0<br/>samples = 1<br/>value = [1, 0]<br/>class = no_sepsis>, fillcolor="#e58139"] ;
21 -> 22 ;
23 [label=<gini = 0.0<br/>samples = 1<br/>value = [0, 1]<br/>class = sepsis>, fillcolor="#399de5"] ;
21 -> 23 ;
24 [label=<gini = 0.0<br/>samples = 561<br/>value = [561, 0]<br/>class = no_sepsis>, fillcolor="#e58139"] ;
20 -> 24 ;
25 [label=<Gender &le; 0.775<br/>gini = 0.394<br/>samples = 37<br/>value = [27, 10]<br/>class = no_sepsis>, fillcolor="#efb082"] ;
7 -> 25 ;
26 [label=<Hours &le; 1.611<br/>gini = 0.142<br/>samples = 26<br/>value = [24, 2]<br/>class = no_sepsis>, fillcolor="#e78c49"] ;
25 -> 26 ;
27 [label=<Potassium &le; -0.921<br/>gini = 0.444<br/>samples = 3<br/>value = [1, 2]<br/>class = sepsis>, fillcolor="#9ccef2"] ;
26 -> 27 ;
28 [label=<gini = 0.0<br/>samples = 1<br/>value = [1, 0]<br/>class = no_sepsis>, fillcolor="#e58139"] ;
27 -> 28 ;
29 [label=<gini = 0.0<br/>samples = 2<br/>value = [0, 2]<br/>class = sepsis>, fillcolor="#399de5"] ;
27 -> 29 ;
30 [label=<gini = 0.0<br/>samples = 23<br/>value = [23, 0]<br/>class = no_sepsis>, fillcolor="#e58139"] ;
26 -> 30 ;
31 [label=<Chloride &le; -1.087<br/>gini = 0.397<br/>samples = 11<br/>value = [3, 8]<br/>class = sepsis>, fillcolor="#83c2ef"] ;
25 -> 31 ;
32 [label=<FiO2 &le; 3.383<br/>gini = 0.375<br/>samples = 4<br/>value = [3, 1]<br/>class = no_sepsis>, fillcolor="#eeab7b"] ;
31 -> 32 ;
33 [label=<gini = 0.0<br/>samples = 3<br/>value = [3, 0]<br/>class = no_sepsis>, fillcolor="#e58139"] ;
32 -> 33 ;
34 [label=<gini = 0.0<br/>samples = 1<br/>value = [0, 1]<br/>class = sepsis>, fillcolor="#399de5"] ;
32 -> 34 ;
35 [label=<gini = 0.0<br/>samples = 7<br/>value = [0, 7]<br/>class = sepsis>, fillcolor="#399de5"] ;
31 -> 35 ;
36 [label=<PTT &le; -0.002<br/>gini = 0.441<br/>samples = 1687<br/>value = [553, 1134]<br/>class = sepsis>, fillcolor="#9acdf2"] ;
0 -> 36 [labeldistance=2.5, labelangle=-45, headlabel="False"] ;
37 [label=<HCO3 &le; 0.001<br/>gini = 0.335<br/>samples = 1406<br/>value = [299, 1107]<br/>class = sepsis>, fillcolor="#6eb7ec"] ;
36 -> 37 ;
38 [label=<Hours &le; -0.907<br/>gini = 0.346<br/>samples = 157<br/>value = [122, 35]<br/>class = no_sepsis>, fillcolor="#eca572"] ;
37 -> 38 ;
39 [label=<Lactate &le; 4.084<br/>gini = 0.153<br/>samples = 12<br/>value = [1, 11]<br/>class = sepsis>, fillcolor="#4ba6e7"] ;
38 -> 39 ;
40 [label=<gini = 0.0<br/>samples = 11<br/>value = [0, 11]<br/>class = sepsis>, fillcolor="#399de5"] ;
39 -> 40 ;
41 [label=<gini = 0.0<br/>samples = 1<br/>value = [1, 0]<br/>class = no_sepsis>, fillcolor="#e58139"] ;
39 -> 41 ;
42 [label=<ICULOS &le; 0.776<br/>gini = 0.276<br/>samples = 145<br/>value = [121, 24]<br/>class = no_sepsis>, fillcolor="#ea9a60"] ;
38 -> 42 ;
43 [label=<Hours &le; -0.551<br/>gini = 0.169<br/>samples = 129<br/>value = [117, 12]<br/>class = no_sepsis>, fillcolor="#e88e4d"] ;
42 -> 43 ;
44 [label=<ICULOS &le; -0.448<br/>gini = 0.48<br/>samples = 20<br/>value = [12, 8]<br/>class = no_sepsis>, fillcolor="#f6d5bd"] ;
43 -> 44 ;
45 [label=<Creatinine &le; -1.05<br/>gini = 0.142<br/>samples = 13<br/>value = [12, 1]<br/>class = no_sepsis>, fillcolor="#e78c49"] ;
44 -> 45 ;
46 [label=<gini = 0.0<br/>samples = 1<br/>value = [0, 1]<br/>class = sepsis>, fillcolor="#399de5"] ;
45 -> 46 ;
47 [label=<gini = 0.0<br/>samples = 12<br/>value = [12, 0]<br/>class = no_sepsis>, fillcolor="#e58139"] ;
45 -> 47 ;
48 [label=<gini = 0.0<br/>samples = 7<br/>value = [0, 7]<br/>class = sepsis>, fillcolor="#399de5"] ;
44 -> 48 ;
49 [label=<ICULOS &le; 0.308<br/>gini = 0.071<br/>samples = 109<br/>value = [105, 4]<br/>class = no_sepsis>, fillcolor="#e68641"] ;
43 -> 49 ;
50 [label=<gini = 0.0<br/>samples = 91<br/>value = [91, 0]<br/>class = no_sepsis>, fillcolor="#e58139"] ;
49 -> 50 ;
51 [label=<O2Sat &le; 0.445<br/>gini = 0.346<br/>samples = 18<br/>value = [14, 4]<br/>class = no_sepsis>, fillcolor="#eca572"] ;
49 -> 51 ;
52 [label=<gini = 0.0<br/>samples = 12<br/>value = [12, 0]<br/>class = no_sepsis>, fillcolor="#e58139"] ;
51 -> 52 ;
53 [label=<ICULOS &le; 0.524<br/>gini = 0.444<br/>samples = 6<br/>value = [2, 4]<br/>class = sepsis>, fillcolor="#9ccef2"] ;
51 -> 53 ;
54 [label=<gini = 0.0<br/>samples = 4<br/>value = [0, 4]<br/>class = sepsis>, fillcolor="#399de5"] ;
53 -> 54 ;
55 [label=<gini = 0.0<br/>samples = 2<br/>value = [2, 0]<br/>class = no_sepsis>, fillcolor="#e58139"] ;
53 -> 55 ;
56 [label=<Hours &le; 3.08<br/>gini = 0.375<br/>samples = 16<br/>value = [4, 12]<br/>class = sepsis>, fillcolor="#7bbeee"] ;
42 -> 56 ;
57 [label=<gini = 0.0<br/>samples = 10<br/>value = [0, 10]<br/>class = sepsis>, fillcolor="#399de5"] ;
56 -> 57 ;
58 [label=<Phosphate &le; 0.93<br/>gini = 0.444<br/>samples = 6<br/>value = [4, 2]<br/>class = no_sepsis>, fillcolor="#f2c09c"] ;
56 -> 58 ;
59 [label=<gini = 0.0<br/>samples = 4<br/>value = [4, 0]<br/>class = no_sepsis>, fillcolor="#e58139"] ;
58 -> 59 ;
60 [label=<gini = 0.0<br/>samples = 2<br/>value = [0, 2]<br/>class = sepsis>, fillcolor="#399de5"] ;
58 -> 60 ;
61 [label=<Glucose &le; -0.002<br/>gini = 0.243<br/>samples = 1249<br/>value = [177, 1072]<br/>class = sepsis>, fillcolor="#5aade9"] ;
37 -> 61 ;
62 [label=<Hours &le; -0.401<br/>gini = 0.453<br/>samples = 127<br/>value = [83, 44]<br/>class = no_sepsis>, fillcolor="#f3c4a2"] ;
61 -> 62 ;
63 [label=<Hct &le; -3.186<br/>gini = 0.1<br/>samples = 19<br/>value = [1, 18]<br/>class = sepsis>, fillcolor="#44a2e6"] ;
62 -> 63 ;
64 [label=<gini = 0.0<br/>samples = 1<br/>value = [1, 0]<br/>class = no_sepsis>, fillcolor="#e58139"] ;
63 -> 64 ;
65 [label=<gini = 0.0<br/>samples = 18<br/>value = [0, 18]<br/>class = sepsis>, fillcolor="#399de5"] ;
63 -> 65 ;
66 [label=<ICULOS &le; 0.465<br/>gini = 0.366<br/>samples = 108<br/>value = [82, 26]<br/>class = no_sepsis>, fillcolor="#eda978"] ;
62 -> 66 ;
67 [label=<gini = 0.0<br/>samples = 68<br/>value = [68, 0]<br/>class = no_sepsis>, fillcolor="#e58139"] ;
66 -> 67 ;
68 [label=<Glucose &le; -0.187<br/>gini = 0.455<br/>samples = 40<br/>value = [14, 26]<br/>class = sepsis>, fillcolor="#a4d2f3"] ;
66 -> 68 ;
69 [label=<Phosphate &le; -1.491<br/>gini = 0.334<br/>samples = 33<br/>value = [7, 26]<br/>class = sepsis>, fillcolor="#6eb7ec"] ;
68 -> 69 ;
70 [label=<gini = 0.0<br/>samples = 4<br/>value = [4, 0]<br/>class = no_sepsis>, fillcolor="#e58139"] ;
69 -> 70 ;
71 [label=<Chloride &le; -0.09<br/>gini = 0.185<br/>samples = 29<br/>value = [3, 26]<br/>class = sepsis>, fillcolor="#50a8e8"] ;
69 -> 71 ;
72 [label=<Unit1 &le; 0.534<br/>gini = 0.49<br/>samples = 7<br/>value = [3, 4]<br/>class = sepsis>, fillcolor="#cee6f8"] ;
71 -> 72 ;
73 [label=<Chloride &le; -4.771<br/>gini = 0.375<br/>samples = 4<br/>value = [3, 1]<br/>class = no_sepsis>, fillcolor="#eeab7b"] ;
72 -> 73 ;
74 [label=<gini = 0.0<br/>samples = 1<br/>value = [0, 1]<br/>class = sepsis>, fillcolor="#399de5"] ;
73 -> 74 ;
75 [label=<gini = 0.0<br/>samples = 3<br/>value = [3, 0]<br/>class = no_sepsis>, fillcolor="#e58139"] ;
73 -> 75 ;
76 [label=<gini = 0.0<br/>samples = 3<br/>value = [0, 3]<br/>class = sepsis>, fillcolor="#399de5"] ;
72 -> 76 ;
77 [label=<gini = 0.0<br/>samples = 22<br/>value = [0, 22]<br/>class = sepsis>, fillcolor="#399de5"] ;
71 -> 77 ;
78 [label=<gini = 0.0<br/>samples = 7<br/>value = [7, 0]<br/>class = no_sepsis>, fillcolor="#e58139"] ;
68 -> 78 ;
79 [label=<Glucose &le; -0.001<br/>gini = 0.154<br/>samples = 1122<br/>value = [94, 1028]<br/>class = sepsis>, fillcolor="#4ba6e7"] ;
61 -> 79 ;
80 [label=<pH &le; -6.303<br/>gini = 0.069<br/>samples = 1039<br/>value = [37, 1002]<br/>class = sepsis>, fillcolor="#40a1e6"] ;
79 -> 80 ;
81 [label=<MAP &le; 0.413<br/>gini = 0.444<br/>samples = 12<br/>value = [8, 4]<br/>class = no_sepsis>, fillcolor="#f2c09c"] ;
80 -> 81 ;
82 [label=<SaO2 &le; 0.884<br/>gini = 0.198<br/>samples = 9<br/>value = [8, 1]<br/>class = no_sepsis>, fillcolor="#e89152"] ;
81 -> 82 ;
83 [label=<gini = 0.0<br/>samples = 8<br/>value = [8, 0]<br/>class = no_sepsis>, fillcolor="#e58139"] ;
82 -> 83 ;
84 [label=<gini = 0.0<br/>samples = 1<br/>value = [0, 1]<br/>class = sepsis>, fillcolor="#399de5"] ;
82 -> 84 ;
85 [label=<gini = 0.0<br/>samples = 3<br/>value = [0, 3]<br/>class = sepsis>, fillcolor="#399de5"] ;
81 -> 85 ;
86 [label=<BaseExcess &le; 0.002<br/>gini = 0.055<br/>samples = 1027<br/>value = [29, 998]<br/>class = sepsis>, fillcolor="#3fa0e6"] ;
80 -> 86 ;
87 [label=<Fibrinogen &le; 5.114<br/>gini = 0.027<br/>samples = 966<br/>value = [13, 953]<br/>class = sepsis>, fillcolor="#3c9ee5"] ;
86 -> 87 ;
88 [label=<O2Sat &le; -7.93<br/>gini = 0.021<br/>samples = 963<br/>value = [10, 953]<br/>class = sepsis>, fillcolor="#3b9ee5"] ;
87 -> 88 ;
89 [label=<gini = 0.0<br/>samples = 2<br/>value = [2, 0]<br/>class = no_sepsis>, fillcolor="#e58139"] ;
88 -> 89 ;
90 [label=<Alkalinephos &le; 0.047<br/>gini = 0.017<br/>samples = 961<br/>value = [8, 953]<br/>class = sepsis>, fillcolor="#3b9ee5"] ;
88 -> 90 ;
91 [label=<SaO2 &le; 0.002<br/>gini = 0.012<br/>samples = 958<br/>value = [6, 952]<br/>class = sepsis>, fillcolor="#3a9ee5"] ;
90 -> 91 ;
92 [label=<Platelets &le; 0.445<br/>gini = 0.004<br/>samples = 938<br/>value = [2, 936]<br/>class = sepsis>, fillcolor="#399de5"] ;
91 -> 92 ;
93 [label=<HospAdmTime &le; -4.057<br/>gini = 0.002<br/>samples = 936<br/>value = [1, 935]<br/>class = sepsis>, fillcolor="#399de5"] ;
92 -> 93 ;
94 [label=<Hours &le; 3.142<br/>gini = 0.064<br/>samples = 30<br/>value = [1, 29]<br/>class = sepsis>, fillcolor="#40a0e6"] ;
93 -> 94 ;
95 [label=<gini = 0.0<br/>samples = 29<br/>value = [0, 29]<br/>class = sepsis>, fillcolor="#399de5"] ;
94 -> 95 ;
96 [label=<gini = 0.0<br/>samples = 1<br/>value = [1, 0]<br/>class = no_sepsis>, fillcolor="#e58139"] ;
94 -> 96 ;
97 [label=<gini = 0.0<br/>samples = 906<br/>value = [0, 906]<br/>class = sepsis>, fillcolor="#399de5"] ;
93 -> 97 ;
98 [label=<Potassium &le; 4.863<br/>gini = 0.5<br/>samples = 2<br/>value = [1, 1]<br/>class = no_sepsis>, fillcolor="#ffffff"] ;
92 -> 98 ;
99 [label=<gini = 0.0<br/>samples = 1<br/>value = [1, 0]<br/>class = no_sepsis>, fillcolor="#e58139"] ;
98 -> 99 ;
100 [label=<gini = 0.0<br/>samples = 1<br/>value = [0, 1]<br/>class = sepsis>, fillcolor="#399de5"] ;
98 -> 100 ;
101 [label=<SaO2 &le; 0.546<br/>gini = 0.32<br/>samples = 20<br/>value = [4, 16]<br/>class = sepsis>, fillcolor="#6ab6ec"] ;
91 -> 101 ;
102 [label=<O2Sat &le; -3.32<br/>gini = 0.32<br/>samples = 5<br/>value = [4, 1]<br/>class = no_sepsis>, fillcolor="#eca06a"] ;
101 -> 102 ;
103 [label=<gini = 0.0<br/>samples = 1<br/>value = [0, 1]<br/>class = sepsis>, fillcolor="#399de5"] ;
102 -> 103 ;
104 [label=<gini = 0.0<br/>samples = 4<br/>value = [4, 0]<br/>class = no_sepsis>, fillcolor="#e58139"] ;
102 -> 104 ;
105 [label=<gini = 0.0<br/>samples = 15<br/>value = [0, 15]<br/>class = sepsis>, fillcolor="#399de5"] ;
101 -> 105 ;
106 [label=<WBC &le; -2.397<br/>gini = 0.444<br/>samples = 3<br/>value = [2, 1]<br/>class = no_sepsis>, fillcolor="#f2c09c"] ;
90 -> 106 ;
107 [label=<gini = 0.0<br/>samples = 1<br/>value = [0, 1]<br/>class = sepsis>, fillcolor="#399de5"] ;
106 -> 107 ;
108 [label=<gini = 0.0<br/>samples = 2<br/>value = [2, 0]<br/>class = no_sepsis>, fillcolor="#e58139"] ;
106 -> 108 ;
109 [label=<gini = 0.0<br/>samples = 3<br/>value = [3, 0]<br/>class = no_sepsis>, fillcolor="#e58139"] ;
87 -> 109 ;
110 [label=<BaseExcess &le; 0.344<br/>gini = 0.387<br/>samples = 61<br/>value = [16, 45]<br/>class = sepsis>, fillcolor="#7fc0ee"] ;
86 -> 110 ;
111 [label=<gini = 0.0<br/>samples = 11<br/>value = [11, 0]<br/>class = no_sepsis>, fillcolor="#e58139"] ;
110 -> 111 ;
112 [label=<Lactate &le; 10.332<br/>gini = 0.18<br/>samples = 50<br/>value = [5, 45]<br/>class = sepsis>, fillcolor="#4fa8e8"] ;
110 -> 112 ;
113 [label=<BaseExcess &le; 7.192<br/>gini = 0.117<br/>samples = 48<br/>value = [3, 45]<br/>class = sepsis>, fillcolor="#46a4e7"] ;
112 -> 113 ;
114 [label=<gini = 0.0<br/>samples = 43<br/>value = [0, 43]<br/>class = sepsis>, fillcolor="#399de5"] ;
113 -> 114 ;
115 [label=<PaCO2 &le; 10.882<br/>gini = 0.48<br/>samples = 5<br/>value = [3, 2]<br/>class = no_sepsis>, fillcolor="#f6d5bd"] ;
113 -> 115 ;
116 [label=<gini = 0.0<br/>samples = 3<br/>value = [3, 0]<br/>class = no_sepsis>, fillcolor="#e58139"] ;
115 -> 116 ;
117 [label=<gini = 0.0<br/>samples = 2<br/>value = [0, 2]<br/>class = sepsis>, fillcolor="#399de5"] ;
115 -> 117 ;
118 [label=<gini = 0.0<br/>samples = 2<br/>value = [2, 0]<br/>class = no_sepsis>, fillcolor="#e58139"] ;
112 -> 118 ;
119 [label=<ICULOS &le; 1.091<br/>gini = 0.43<br/>samples = 83<br/>value = [57, 26]<br/>class = no_sepsis>, fillcolor="#f1ba93"] ;
79 -> 119 ;
120 [label=<Hours &le; -0.32<br/>gini = 0.271<br/>samples = 62<br/>value = [52, 10]<br/>class = no_sepsis>, fillcolor="#ea995f"] ;
119 -> 120 ;
121 [label=<O2Sat &le; -1.193<br/>gini = 0.375<br/>samples = 12<br/>value = [3, 9]<br/>class = sepsis>, fillcolor="#7bbeee"] ;
120 -> 121 ;
122 [label=<gini = 0.0<br/>samples = 3<br/>value = [3, 0]<br/>class = no_sepsis>, fillcolor="#e58139"] ;
121 -> 122 ;
123 [label=<gini = 0.0<br/>samples = 9<br/>value = [0, 9]<br/>class = sepsis>, fillcolor="#399de5"] ;
121 -> 123 ;
124 [label=<Temp &le; 1.536<br/>gini = 0.039<br/>samples = 50<br/>value = [49, 1]<br/>class = no_sepsis>, fillcolor="#e6843d"] ;
120 -> 124 ;
125 [label=<gini = 0.0<br/>samples = 49<br/>value = [49, 0]<br/>class = no_sepsis>, fillcolor="#e58139"] ;
124 -> 125 ;
126 [label=<gini = 0.0<br/>samples = 1<br/>value = [0, 1]<br/>class = sepsis>, fillcolor="#399de5"] ;
124 -> 126 ;
127 [label=<Glucose &le; 0.477<br/>gini = 0.363<br/>samples = 21<br/>value = [5, 16]<br/>class = sepsis>, fillcolor="#77bced"] ;
119 -> 127 ;
128 [label=<FiO2 &le; -0.04<br/>gini = 0.469<br/>samples = 8<br/>value = [5, 3]<br/>class = no_sepsis>, fillcolor="#f5cdb0"] ;
127 -> 128 ;
129 [label=<gini = 0.0<br/>samples = 4<br/>value = [4, 0]<br/>class = no_sepsis>, fillcolor="#e58139"] ;
128 -> 129 ;
130 [label=<Glucose &le; 0.073<br/>gini = 0.375<br/>samples = 4<br/>value = [1, 3]<br/>class = sepsis>, fillcolor="#7bbeee"] ;
128 -> 130 ;
131 [label=<gini = 0.0<br/>samples = 1<br/>value = [1, 0]<br/>class = no_sepsis>, fillcolor="#e58139"] ;
130 -> 131 ;
132 [label=<gini = 0.0<br/>samples = 3<br/>value = [0, 3]<br/>class = sepsis>, fillcolor="#399de5"] ;
130 -> 132 ;
133 [label=<gini = 0.0<br/>samples = 13<br/>value = [0, 13]<br/>class = sepsis>, fillcolor="#399de5"] ;
127 -> 133 ;
134 [label=<Hours &le; -0.796<br/>gini = 0.174<br/>samples = 281<br/>value = [254, 27]<br/>class = no_sepsis>, fillcolor="#e88e4e"] ;
36 -> 134 ;
135 [label=<Hgb &le; -0.082<br/>gini = 0.415<br/>samples = 17<br/>value = [5, 12]<br/>class = sepsis>, fillcolor="#8bc6f0"] ;
134 -> 135 ;
136 [label=<gini = 0.0<br/>samples = 3<br/>value = [3, 0]<br/>class = no_sepsis>, fillcolor="#e58139"] ;
135 -> 136 ;
137 [label=<MAP &le; -1.272<br/>gini = 0.245<br/>samples = 14<br/>value = [2, 12]<br/>class = sepsis>, fillcolor="#5aade9"] ;
135 -> 137 ;
138 [label=<gini = 0.0<br/>samples = 2<br/>value = [2, 0]<br/>class = no_sepsis>, fillcolor="#e58139"] ;
137 -> 138 ;
139 [label=<gini = 0.0<br/>samples = 12<br/>value = [0, 12]<br/>class = sepsis>, fillcolor="#399de5"] ;
137 -> 139 ;
140 [label=<ICULOS &le; 0.542<br/>gini = 0.107<br/>samples = 264<br/>value = [249, 15]<br/>class = no_sepsis>, fillcolor="#e78945"] ;
134 -> 140 ;
141 [label=<FiO2 &le; -1.36<br/>gini = 0.042<br/>samples = 235<br/>value = [230, 5]<br/>class = no_sepsis>, fillcolor="#e6843d"] ;
140 -> 141 ;
142 [label=<PTT &le; 3.136<br/>gini = 0.408<br/>samples = 7<br/>value = [5, 2]<br/>class = no_sepsis>, fillcolor="#efb388"] ;
141 -> 142 ;
143 [label=<gini = 0.0<br/>samples = 5<br/>value = [5, 0]<br/>class = no_sepsis>, fillcolor="#e58139"] ;
142 -> 143 ;
144 [label=<gini = 0.0<br/>samples = 2<br/>value = [0, 2]<br/>class = sepsis>, fillcolor="#399de5"] ;
142 -> 144 ;
145 [label=<Hours &le; -0.612<br/>gini = 0.026<br/>samples = 228<br/>value = [225, 3]<br/>class = no_sepsis>, fillcolor="#e5833c"] ;
141 -> 145 ;
146 [label=<ICULOS &le; -0.286<br/>gini = 0.32<br/>samples = 5<br/>value = [4, 1]<br/>class = no_sepsis>, fillcolor="#eca06a"] ;
145 -> 146 ;
147 [label=<gini = 0.0<br/>samples = 4<br/>value = [4, 0]<br/>class = no_sepsis>, fillcolor="#e58139"] ;
146 -> 147 ;
148 [label=<gini = 0.0<br/>samples = 1<br/>value = [0, 1]<br/>class = sepsis>, fillcolor="#399de5"] ;
146 -> 148 ;
149 [label=<ICULOS &le; 0.212<br/>gini = 0.018<br/>samples = 223<br/>value = [221, 2]<br/>class = no_sepsis>, fillcolor="#e5823b"] ;
145 -> 149 ;
150 [label=<gini = 0.0<br/>samples = 201<br/>value = [201, 0]<br/>class = no_sepsis>, fillcolor="#e58139"] ;
149 -> 150 ;
151 [label=<Unit2 &le; 0.633<br/>gini = 0.165<br/>samples = 22<br/>value = [20, 2]<br/>class = no_sepsis>, fillcolor="#e88e4d"] ;
149 -> 151 ;
152 [label=<gini = 0.0<br/>samples = 20<br/>value = [20, 0]<br/>class = no_sepsis>, fillcolor="#e58139"] ;
151 -> 152 ;
153 [label=<gini = 0.0<br/>samples = 2<br/>value = [0, 2]<br/>class = sepsis>, fillcolor="#399de5"] ;
151 -> 153 ;
154 [label=<Potassium &le; -0.011<br/>gini = 0.452<br/>samples = 29<br/>value = [19, 10]<br/>class = no_sepsis>, fillcolor="#f3c3a1"] ;
140 -> 154 ;
155 [label=<Resp &le; -1.522<br/>gini = 0.133<br/>samples = 14<br/>value = [13, 1]<br/>class = no_sepsis>, fillcolor="#e78b48"] ;
154 -> 155 ;
156 [label=<gini = 0.0<br/>samples = 1<br/>value = [0, 1]<br/>class = sepsis>, fillcolor="#399de5"] ;
155 -> 156 ;
157 [label=<gini = 0.0<br/>samples = 13<br/>value = [13, 0]<br/>class = no_sepsis>, fillcolor="#e58139"] ;
155 -> 157 ;
158 [label=<Potassium &le; 0.762<br/>gini = 0.48<br/>samples = 15<br/>value = [6, 9]<br/>class = sepsis>, fillcolor="#bddef6"] ;
154 -> 158 ;
159 [label=<FiO2 &le; -0.05<br/>gini = 0.375<br/>samples = 12<br/>value = [3, 9]<br/>class = sepsis>, fillcolor="#7bbeee"] ;
158 -> 159 ;
160 [label=<HospAdmTime &le; 0.078<br/>gini = 0.444<br/>samples = 3<br/>value = [2, 1]<br/>class = no_sepsis>, fillcolor="#f2c09c"] ;
159 -> 160 ;
161 [label=<gini = 0.0<br/>samples = 2<br/>value = [2, 0]<br/>class = no_sepsis>, fillcolor="#e58139"] ;
160 -> 161 ;
162 [label=<gini = 0.0<br/>samples = 1<br/>value = [0, 1]<br/>class = sepsis>, fillcolor="#399de5"] ;
160 -> 162 ;
163 [label=<O2Sat &le; -1.011<br/>gini = 0.198<br/>samples = 9<br/>value = [1, 8]<br/>class = sepsis>, fillcolor="#52a9e8"] ;
159 -> 163 ;
164 [label=<gini = 0.0<br/>samples = 1<br/>value = [1, 0]<br/>class = no_sepsis>, fillcolor="#e58139"] ;
163 -> 164 ;
165 [label=<gini = 0.0<br/>samples = 8<br/>value = [0, 8]<br/>class = sepsis>, fillcolor="#399de5"] ;
163 -> 165 ;
166 [label=<gini = 0.0<br/>samples = 3<br/>value = [3, 0]<br/>class = no_sepsis>, fillcolor="#e58139"] ;
158 -> 166 ;
}
